"","V1","V2","V3","V4","V5","V6","V7","V8","V9","V10","V11","V12","V13","V14","V15","V16","V17","V18","V19","V20"
"Abomasnow",-0.0452855456437529,-0.06972736479152,-0.0667600095582909,-0.0339612810323532,0.0200162559679411,0.031027334992985,0.0367923163003327,-0.0307207965162203,-0.0116444413385527,0.0119847084808045,0.000615579736468848,0.00224500615328009,0.00453483157893786,-0.00067893891018457,0.0215046883873491,-0.0203835856641003,0.078600451836359,0.0128147800015689,-0.0401352273592629,-0.0111742006233683
"Abra",-0.052915440858739,-0.00228340333997953,0.000536202529491398,0.0474083899794163,-0.0184558773380909,0.0231428173635575,-0.0360743520014288,-0.0245409687983203,-0.0151591289042132,0.00630459798936356,-0.0261241292012597,-0.00747839049886462,0.0177928954054178,-0.0361256816998185,-0.0267539774022566,-0.0362801899159931,-0.0449350817721449,0.0423315176025675,-0.023949840020868,0.0276225542323979
"Absol",0.031911718355035,-0.00180860612562908,-0.00295879834069221,0.0274403363158906,0.0601838828855254,0.00504397448396721,-0.0201278859320774,-0.0159664392956038,0.010877411174276,-0.00394550220137705,-0.063776419496979,-0.013076133365033,0.0144626757089124,-0.0201110949452778,0.000191862619935895,-0.0106714252006427,0.0120508672781264,-0.0532706431188161,-0.010922196214121,-0.00980795630187556
"Accelgor",-0.000735537727426596,-0.0106929328577888,0.0407533203599775,-0.0476211820949673,0.0508551412916387,0.0377399693398346,-0.0267136673384031,-0.0457239818374423,-0.0132710681014326,0.0194074154067538,-0.0192996162234705,0.00576061473421221,0.00562184734630327,-0.00559573537158676,0.0184303664421328,0.0538010702150952,-0.0289643882661536,0.0126021819112056,-0.0571446807512321,0.00209726739116606
"Aerodactyl",-0.00818882431597025,-0.00338336755687774,-0.0160116061821212,-0.00139392544471129,-0.0235809834692447,0.0456115715232106,0.00249635407649677,0.00401749561077888,0.00903741260539086,-0.0431953702361407,-0.00866497733478637,-0.0422610162310974,-0.0174492186218642,0.0228961506170592,0.00616535209742693,0.0364626118716561,-0.0308528713612735,-0.0193602421486875,-0.00902222650690232,-0.0202630663746476
"Aggron",-0.0286941585690264,0.012241511104523,-0.0314178245164704,0.00396099558498543,0.00524462073811643,0.00350996293593836,0.0416483836978515,0.021920382226418,-0.0271871088552084,0.00862945297821391,-0.0370907809187642,-0.0115464549464865,-0.0026138896624999,-0.000620802326370594,0.0164102697602,0.0268411196153673,0.0360190799193836,-0.014400473582923,0.109393334971443,-0.0470296534297018
"Aipom",0.0201777217415156,-0.0405258049065751,0.0267391993673952,0.00213342664379919,-0.0134926045015339,-0.00173550958205125,0.0149131621616747,0.00254121854491582,0.00142867954740609,0.00180487305394664,-0.00965934430629951,-0.0176520302288858,0.00646903304144454,-0.0236329398878173,0.00982497954001739,0.00638634652765449,-0.00735113605014909,-0.0362401074504236,0.000117863093790249,0.0207400964500374
"Alakazam",-0.056482673474241,-0.00790202173260621,0.0138972627331002,0.0454972939374521,-0.0122582036035751,0.0228466000372026,-0.0269112114315764,-0.0337979573986672,-0.0166061587688658,-0.00843355804612324,-0.0263487639004936,-0.00126556318692699,0.0181122136372342,-0.0318435906996285,-0.0135731492079431,-0.0354979866446646,-0.0462344545409883,0.0437495553936108,-0.0355848187705731,-0.0132788791820587
"Alcremie",0.0146518911022764,0.0259112452733197,0.0181181314614529,-0.0227522962633982,0.0496683351933503,-0.00431133664627424,-0.0396500852116487,0.0412640655695009,0.00299359651345096,-0.0711476751943526,0.0552405891931767,-0.017737064149373,0.0223913729916597,-0.0262365863682655,0.0763399697388163,-0.0396167077528094,0.00512037866163342,0.0476098898978964,-0.00714399838256477,-0.00567661326140398
"Alomomola",-0.00833813652636725,0.0197437836304414,0.0283139700721182,-0.0612351054156436,0.0203614141971756,-0.0116153377946597,0.0167863473668576,-0.0172125656046556,0.0857505443958321,0.0541987828572738,0.0331083992447148,0.031112649595228,-0.0162877549171112,0.0626278690599383,0.0120485027811992,-0.0625834555572276,-0.0312941414365269,-0.0474360124824618,0.00876953323544589,-0.0116080799399454
"Altaria",-0.0501225341145487,0.0304385875246456,0.0214271710017192,0.0173956706387948,-0.0104631134302638,-0.0644033484033595,0.0135598056829502,0.0516865341983156,-0.0464744687719847,-0.0782068986963492,0.0162391545208735,-0.0765290180810975,-0.0519981802028073,0.0612916782548015,-0.0531898314956664,0.0207744746192616,0.000481210664569687,-0.00804629430850343,-0.0548702760052691,-0.0151066959149559
"Amaura",-0.048061884510701,-0.0944224297142678,-0.108872332603533,-0.0384261247783169,0.00630707796810188,0.0628909399832723,-0.0357330517608697,-0.0497044622057484,-0.0417687288741704,-0.0279790049904299,0.032589038922422,-0.0517529606530476,-0.00261629960355978,-0.00511824978477157,0.0146779944757489,-0.0129008158385885,0.0213622780158675,-0.0241898116458573,0.0521813231123426,0.000930871989877308
"Ambipom",0.0157642201914453,-0.043212145259748,0.0329984781618169,-0.00284263380021465,-0.00728468661229094,0.00429547664473516,0.0206818025537359,-0.00347125209542343,0.00573596309111553,-0.0064011046836831,-0.0146149796944477,-0.0126044787127162,0.0099070865544664,-0.0255284976179647,0.0140550101398804,0.012230439141151,-0.0117061762688212,-0.0419345387728723,-0.0110670399051751,-0.00440622373152274
"Amoonguss",-0.00212211321975438,-0.00166279573233946,-0.0108829639332953,-0.0198166611439703,-0.00939761210357619,-0.00746681427180995,0.0465116467086634,-0.0050523061854135,0.00994816956621217,0.00888432247722046,0.0378106490853782,0.0368954374698644,0.00896411050218306,0.0025932260813711,0.00232807633092227,-0.00123714765809227,0.0533307427890797,0.0215888275822264,-0.0286763338664135,-0.00109273343550509
"Ampharos",-0.00574014785659488,0.0153541239396889,0.0210652966156184,-0.0206050836194397,0.0132274696641578,-0.0246665775696961,0.031159966007316,-0.0194367962251136,-0.0303433249670145,0.00412718611583994,0.0171020216271844,0.00725480081125952,0.0159086271865458,-0.0191267646472755,0.00210185485063155,-0.0255720264767169,-0.0106770118067524,-0.00233763552561361,0.00443737023787126,-0.0227309270788661
"Annihilape",0.025192005484996,-0.0584130775819632,0.0303835584178389,0.00946790270989115,0.00555345637226898,-0.0264302237656364,-0.0313797093081787,0.00680500780457921,0.10512185172476,-0.0599753694873661,0.0265839035769383,0.061389832368379,0.0219884330846126,0.000714568659107815,-0.0330234341195013,0.0408917026511431,0.000876691132281185,0.00264765538944148,0.00104524710912066,-0.0294529135323242
"Anorith",0.0208723523271842,-0.0219707492304873,-0.0498519389072811,-0.0237975751066447,0.00176206627850939,0.0946115514526034,-0.0457456334785329,-0.0245547583209542,-0.0208530809148948,-0.0215280628618875,-0.0271878272994344,0.00140801563900589,-0.00853616933411308,0.0258534062016871,-0.00574726726313187,0.0464660656092332,-0.00471093774893106,-0.00880638622277706,0.0292877453276758,0.0182064425829474
"Appletun",-0.0256890528944809,0.034748354100359,-0.0332158539798789,-0.0229346033338107,0.0226820205080522,-0.0646813693820379,0.0440454737275586,0.010488781248606,-0.0424815979491232,-0.0286732756183896,0.0330129766048433,-0.00683748679519101,-0.0159467238504254,0.0230732409612339,-0.076542502497729,-0.0446294003202212,0.0861792576341412,-0.00245762327331587,-0.0660986742528794,-0.0150880603396107
"Applin",-0.0113740862858879,0.0357834083265254,-0.0291518283377051,0.00121297934335957,-0.00701308298667969,-0.0443018519564538,0.0183266603408712,0.0580163912936323,-0.0641092167971686,-0.00991567188474565,0.00353810375714573,-0.0162235473958483,-0.0229590352299801,0.0215028384890729,-0.0977581170451541,-0.0306150501031915,0.0899947455365377,0.00218033799915949,-0.0407358908582088,0.0410462069695324
"Araquanid",0.0208336865414985,-0.00212722213403443,0.0340817387686831,-0.000244456612259199,0.022338906956501,-0.0367733529022989,-0.0186290042999726,-0.0211498913092332,-0.0248240715455751,0.0216680484214591,0.00272328333013119,0.0420211463235814,-0.0315676876676459,0.0849187922716363,0.0386477421975571,-0.00415820707834141,-0.0042780651171211,0.0248751738064994,-0.0016574791211903,0.000675228192190128
"Arbok",-0.0347965841404148,-0.0225412172249812,0.0313199798483198,-0.0119503069226106,0.00553863042061781,-0.0165277741961477,0.0248096793713872,0.0212790426801513,-0.0312466314252913,-0.00662515705839545,0.0365693256972753,0.0267590804248655,0.0126744033455878,-0.00936669593064554,-0.0169959780066125,0.0333766705235319,-0.0142041082049976,-0.00834032837956302,0.000600506367791117,-0.00694005755881723
"Arboliva",0.0291531198994269,-0.0233240586727574,-0.0114870971761544,0.0111449835185151,-0.0112283221343779,-0.0106795921522723,0.0618894386761702,-0.0050979581332246,-0.023327553390976,-0.00348275885780919,0.00377554589912579,0.00513794392713493,0.00130771628886348,-0.00703978782580367,0.0230625071644355,-0.0384813637062145,0.061011976653862,0.016341551204357,-0.0400905668562211,-0.0106668053604878
"Arcanine",0.00392580899118695,0.0231056352251676,-0.0225078407264442,0.0282049413053926,0.0148215459755916,-0.000831190962288592,0.0371733040127985,-0.0654532545681341,-0.0250768989506765,-0.00863841627075063,0.0113107267574037,0.0180979753735758,0.0248585080283161,-0.0249925710257093,0.0151800784500354,0.0268825913134187,-0.0373945572656202,-0.0151867771437492,-0.00247878304562973,-0.0318329107303887
"Arceus",0.0681127776673121,-0.0347407894488239,0.0222108587470073,-0.033322059903631,-0.0623287387191442,0.000954212522451595,0.00442345245209183,0.00972778026346342,-0.00729589516694707,0.023614584118629,0.00114916400169061,-0.0179391010396276,-0.0102766619090404,-0.0172938735748288,0.0414298471094124,0.00384610673134261,-0.00547235883569548,-0.0181356264610416,-0.0276997067490235,-0.0933626275912502
"Archaludon",-0.0314864196138065,0.00476852656168607,-0.00428747819643477,-0.0128238873612017,0.0302242740019754,-0.0279905097385762,0.0189689274552758,0.0304370212676477,-0.0193483639585355,-0.0028653003628556,-0.0175452490049288,-0.0096805508492336,-0.00110106072652527,-0.00885702876066528,-0.022678690464246,0.0134415536259375,0.00223529938490097,0.00291598721599527,0.0163227323610989,-0.0497453116202818
"Archen",-0.00517068886854051,0.0124510347846163,-0.0756436008318967,0.00554108670159223,-0.0266437531070887,0.0847064676385244,0.00828977569475201,0.00226375707367653,0.0148425834969841,-0.0662690660287726,-0.0209710380492334,-0.0397684293363209,-0.0230192723172549,0.040652836888549,-0.00243642861422556,0.0417659916894335,-0.0323047289827295,-0.0203653942001059,0.00752024130208776,0.0054064196201427
"Archeops",-0.0111644401991855,0.00985734860108145,-0.0686851770532517,0.00241183530641451,-0.0175602631751148,0.094258327559438,0.0169967120610271,-0.00445994504647231,0.0125861009070774,-0.0800611201184619,-0.027176681134977,-0.0340257581414396,-0.018665035525179,0.0381307487515965,0.00521367626386211,0.0472797434510618,-0.0405544010887692,-0.0220013880387916,-0.00835436445714995,-0.0297456757515254
"Arctibax",-0.0771409260363299,-0.0774842578690323,-0.0491037519276863,-0.0503009176058166,0.038375510312236,-0.0394356953954825,-0.0479930887669207,0.0114715083200395,-0.0347992128336303,-0.00950115255904529,0.0141457029609123,-0.0475257932783753,-0.0202657408603881,0.0124737730333281,-0.0512606397100267,0.00513936644201932,0.0298735774326907,-0.0326653299660979,-0.00809369402665343,-0.00798542401648054
"Arctovish",-0.00198647626513598,-0.033604482437744,-0.0296508626882257,-0.0260619272109995,-0.0123248169142994,-0.000258076544719273,-0.0187072854470112,0.00553147047888577,-0.00633427718278418,0.027639545551727,-0.000628250850782955,0.000340408970461972,-0.0172500244138834,0.0240775423187331,0.0211207302228886,-0.0202023225319048,-0.00711364068305934,-0.00529293329244347,0.00322150285255044,-0.0348541037423699
"Arctozolt",-0.00532422936583679,-0.0185726800280254,-0.0248002298602035,-0.0405574946178475,-0.00669316207894916,-0.00517631864630095,-0.0156449255623263,-0.00344427872478102,-0.0175765982187827,0.0266779310156606,-0.00279681892584295,-0.0133437934282689,-0.00065390052370711,-0.0165113793158412,0.0100254937766056,0.00118614702430119,0.00623864991784154,-0.00237763299190875,0.00495138298009779,-0.0378489542259921
"Ariados",-0.00545940868149899,-0.000650329150278094,0.0191827229423386,-0.0379872256733691,0.0237966775657419,-0.0211842973835783,-0.00711800126099221,-0.0325310229822799,-0.00762418556319154,0.0372395505233945,0.0380046558568815,0.0393078462977751,-0.00897158596814474,0.0328410740665429,0.0169843288005224,0.0712024584761521,0.0158004761571092,0.0253599747131524,-0.00591897422987951,0.0148089307068466
"Armaldo",0.0207026236598408,-0.00844499823137362,-0.0560708127043762,-0.011964781405389,0.0122431398950758,0.0652939619428322,-0.025210660611845,-0.0444003798099255,-0.0171165708823321,-0.0316314298047285,-0.0111599606378806,0.0145282603826366,-0.0167470659867783,0.0511758127774292,0.0109727908866883,0.0381761013845936,0.0211428167333897,-0.0017641697300258,0.0376592395536239,-0.021644026452078
"Armarouge",-0.0603839903859686,0.0451037414613298,-0.0231627252291241,0.0862021891658744,-0.0184458564567061,-0.0187996932605654,-0.00736301672433697,-0.0912749062573462,-0.0262360691280892,0.00074630409314512,0.00714293089156667,0.00298070553070002,0.0183631443634445,-0.0254230376795755,-0.00226767428328333,-0.0159914053515866,-0.0453332119602762,0.045638837128802,8.03768509046172e-05,-0.0288239241158199
"Aromatisse",-0.0168834411074548,0.0685889111592406,-0.0245567611638063,-0.0286907806206708,0.0446893593045388,-0.00753361574246484,-0.033930075117142,0.023890112879326,0.0201523360078359,-0.0497906399200703,0.0767399386076248,-0.00862126604566161,0.0230436255074462,-0.0168956687930429,0.0877303699814529,-0.0429244173690445,0.023170336770136,0.0190668772919698,-0.000864397939727725,-0.00536355356678477
"Aron",-0.0241914967567594,0.007233183563472,-0.0396679396952165,-0.00260186120998997,0.000452529364826169,-0.000581078636775621,0.0281787898220285,0.0228329032098579,-0.0272432050551073,0.0143433475631283,-0.0301116388282222,-0.0193789893226791,0.00385660015671655,-0.0178754317751608,0.0058071259432671,0.0150949101736923,0.0201047896777476,-0.0114311004663294,0.103743813053436,0.00256111084789261
"Arrokuda",-0.00367243924937116,0.0115280283301514,0.0167541201817585,-0.0228093395450098,0.0124770522508649,0.023267708070414,-0.00963509531733276,0.0292612488393765,0.0244212005423304,0.0371131227552082,-0.0259057102429492,0.0276044101316467,-0.0029863082579979,0.0238492671018453,-0.0139999690382376,-0.0322734777540587,-0.0439670230263258,-0.0254596542342077,0.0111024619647775,0.0396567473245383
"Articuno",-0.0112119446164596,-0.0783221816178915,-0.0677876199933142,-0.0388981817446883,-0.0389066721815989,0.0150250860321285,-0.0382472491616314,-0.0165896053771683,-0.0223302577238956,-0.00262594030462421,0.00766822160471024,-0.0577671654647579,-0.0387116421137116,0.0354462071662126,0.0634448255892706,0.0229490621940121,-0.0121486207719682,0.0279357342688675,-0.0351246508572251,-0.0485666435959001
"Audino",0.0187445956890831,-0.0243200078452559,0.0274210980264244,-0.0108996193760957,-0.00457427144656738,-0.0400615243937527,0.016177325362615,0.0045084994395251,0.00834557979453581,-0.00701790269032721,0.0380626116379066,-0.027352578872649,-0.00291051221363899,-0.00654413167305391,0.044638309306897,-0.0230365700842253,0.0166317334472992,-0.0172360219820393,0.00558866696617891,-0.00319280725693684
"Aurorus",-0.0492055598457308,-0.098533541142314,-0.108760701086916,-0.0379831999520871,0.0144651081360653,0.0597086095507717,-0.0263302669566201,-0.0639190704160165,-0.0366361840619291,-0.028512969181574,0.0510736268851404,-0.0509711669915005,-0.00412743417677242,0.00192789326335634,0.0279638905146326,-0.0187525600339467,0.0257515372972321,-0.0259903778229198,0.0439783923192043,-0.0391729193512903
"Avalugg",-0.0604944179367033,-0.0582190880479815,-0.0528821508008082,-0.021548598112928,0.00965918207368364,0.00175388676918592,-0.000462017897946735,-0.0181549363626374,-0.000761008218340863,0.0160268939311634,0.00694461082599871,-0.0194450983851812,-0.0257084510343875,0.042183039528945,0.0226134688845595,0.0141439849063654,0.0687241453658243,-0.0125527080484654,0.0506538584353561,-0.0371320637290417
"Axew",-0.0522982168312354,0.0143569224223834,-0.0118992059482713,-0.027591427719571,0.0105119289267937,-0.0506312082344721,-0.0249659782271453,0.045415274910067,-0.0526474960640192,-0.01395010434937,0.000465943797911052,-0.0230377443048474,-0.0180471008812669,0.0139544789608652,-0.094585922500512,0.00590105463739265,0.0215534112974327,-0.0372067471197037,-0.00970628110089258,0.0188353018578446
"Azelf",-0.0303282451038186,0.0132398042645032,0.00108389884094059,-0.0195598750629556,-0.0530821488881485,0.0505597778355159,-0.0398531525267949,-0.0270573217331526,0.0197956668237863,0.0203304470437055,-0.05821679973251,-0.0116655665487171,0.00560905394642705,-0.0319307058145099,-0.0226683955879793,-0.0165042344979793,-0.0324342268274515,0.0317120513666071,-0.0394860255820843,-0.0470455927209926
"Azumarill",-0.00510014879721272,0.0631193991530577,0.00713709735056005,-0.0367370635631606,0.0361864797787405,-0.00218929389763224,-0.0257554181407887,0.0496606134269751,0.0247689126617236,-0.0319990621309545,0.0553943312615737,0.0245786639883734,0.00786828802053072,0.0304006637214449,0.0908190806289397,-0.0748316585441004,-0.0172696770701413,0.00213998006697693,0.0119867776537309,0.00852114403723026
"Azurill",0.0547490588893526,0.0185378668412834,-0.0199937938403116,-0.019464697911077,-0.0349255365951005,-0.0113584331656194,-0.0558817288346685,0.0594708614035101,0.0144467922558589,0.00708682940796402,0.0579122010690644,-0.0470213983294513,0.00470341650610815,-0.0304738141602383,0.0639155425254767,-0.0288635822945239,0.0146498467056591,-0.00728229745272582,0.0219192836524297,0.0588138753333248
"Bagon",-0.0321810370778833,0.0182903036965747,-0.0136117977841768,-0.0204328410604376,0.0135297298337222,-0.0495030794514291,-0.0333785920783079,0.0492073058058886,-0.0414453308693525,-0.00331978050955486,0.00160189778798039,-0.0259455783043127,-0.0180658463630082,0.0103651553825487,-0.0903647272207823,0.00419532832970751,0.0151950909699567,-0.0300702783330756,-0.0108777822651308,0.0234626460185442
"Baltoy",-0.0374435945930306,0.0168658483747561,0.0655712586655833,0.0124709175922288,-0.0471500878351566,0.0386399229441477,-0.0317092354297197,-0.0265156436803818,0.00767965786349963,0.00801797646071848,-0.0171195062089875,-0.0403047347173647,-0.00749532567628425,-0.0141663161955459,-0.0471824340088073,-0.0281588943869402,0.0103179184922576,0.0400544894644666,0.0259432870035065,0.0184283211707296
"Banette",0.051024437079645,-0.029208539815026,-0.0213824687687861,-0.00971555497366184,0.051370020021143,0.00390168836800671,0.00788342466551381,0.000306621028108571,0.0804315129351646,-0.0455251835086393,0.00094910439038103,0.00931387500652892,0.00690706369114497,-0.00530881225659888,-0.0607311435378584,0.0166832330440487,-0.0261814625605484,0.0517947441397413,0.0169771104247512,-0.0118004170585522
"Barbaracle",0.0296752169138022,-0.0362989641449752,-0.00663443006547629,-0.0215180398050914,-0.00895250830874943,0.0732933124744386,-0.00559445950812316,0.00597340079401788,-0.0173805252073031,-0.0368299241718659,-0.031354732455345,0.0341333496889124,-0.0173344316288342,0.0664939248684483,0.00996796238513419,-0.025295741048451,-0.0142803016294423,-0.0256913170583195,0.0645703244150922,-0.0253103899698392
"Barboach",0.00811496025816931,0.0408114576595542,0.0694671670161534,-0.0373019818460681,0.00295905555370512,0.041833771832319,-0.00641119260818941,-0.00604002116270567,0.0190038304885535,0.0207320938395185,0.00150929345723903,0.0162595590487148,0.00190634876468221,0.0147469293208471,-0.0343435555428732,-0.0460265297138467,-0.02359370211483,-0.0265574103193848,0.0306799430043184,0.0312065662766075
"Barraskewda",-0.019068532253357,-0.00616261088618469,0.0558559968751172,-0.040694994061627,0.0301096104678222,0.0640489713750721,0.00278487991922897,0.0209080699456155,0.0358582194078399,0.00701410841052904,-0.0556934876666941,0.0432472204067226,0.0076015170283393,0.0194478242899972,-0.00578878029433516,-0.00784140001934558,-0.0588352127200441,-0.0425167069298423,-0.0145757375987022,-0.00745280344409285
"Bastiodon",-0.0155065445924222,-0.0143856721676012,-0.0121025705403656,0.0402786400988824,-0.0189373933488,-0.0331744523949471,0.0380726538521498,0.0217162405740005,-0.078054565902438,-0.0148672972631978,-0.0257305020276578,-0.00856034888634052,-0.00722394242882987,0.00999591537577727,0.0398666303876382,-0.000247158671360063,0.0381564787867185,0.0195437877660878,0.11367761593544,-0.0382329161092449
"Baxcalibur",-0.130336840473186,-0.103439598712033,-0.0488403635408429,-0.0736774459033326,0.0724620495641629,-0.0414769907604539,-0.0362768534197619,-0.000690711322766699,-0.0296909827456323,-0.0268100517571523,0.013530118496764,-0.0407698120880337,-0.0216753674553957,0.0223002857630862,-0.0476965136027564,0.0168740463238871,0.0353848335411491,-0.0437002716921986,-0.0205788771128134,-0.0556907652989055
"Bayleef",-0.00495952034133114,0.000699412329802735,-0.0195884783554505,0.00980094496783398,-0.0202440419095079,0.01884851372382,0.0470380687930032,0.000177596461395021,-0.0252859285793385,-0.00483795667576398,-0.0103609481227826,0.0248444898882562,0.00638724041795309,0.0019043008709512,-0.0074903425640915,-0.0242056293230593,0.0607734436779968,0.0169046601895862,-0.0318227115245197,0.0128894786870593
"Beartic",-0.0464614009448172,-0.081412693087336,-0.0490896081875435,-0.020094399900316,0.0349859493800041,0.00596592765472711,-0.00541362827256103,-0.0461816982950729,0.0218975280135126,0.0111512342729611,0.0153922920049673,-0.0118370816201025,0.00053285434989726,0.00545566472178247,0.0265601202176086,0.00842134068533688,0.0286562311068836,-0.0262545148101602,0.00646132953432762,-0.0266485443645202
"Beautifly",0.000808173927504361,0.0269942885658911,-0.020505605478276,-0.013402499671951,0.0352556517712387,0.00578297353842239,-0.00884401713442707,-0.0398905855694965,-0.00817328936792403,0.0163047873263269,0.000500224959392375,-0.0204476416444751,-0.0269463728589367,0.0423767708851826,0.0255116181031219,0.0615270098855435,-0.0157912180341331,0.0271201626201106,-0.0459397478275073,0.0225790637762158
"Beedrill",-0.00516797032582631,-0.0224186016362985,0.0398453765782502,-0.0431594462612367,0.0199270459836542,-0.00704404149568768,-0.0163667136104448,-0.0274207045497168,-0.00884422528005703,0.0318522298454249,0.0300584337905788,0.0365750677997101,-0.00214754580104079,0.0195507703598323,0.0168845313156134,0.0788000066447406,6.0542343762215e-05,0.0200884066481167,-0.0197194218390448,0.0190433424546575
"Beheeyem",-0.0573121581904914,0.0103846110159819,-0.00275571328731804,0.0500574549965026,-0.00942858514025065,-0.0171759629932851,-0.0213338321608495,-0.0460572884569755,0.00685887927635412,0.000229054333151492,-0.00527827121060154,0.00151028333651224,0.00645338979983273,-0.00731475614619032,-0.0101411478504449,-0.0450565425655463,-0.00643439009606532,0.0449713389027752,-0.00799797733053256,-0.0166755855018025
"Beldum",-0.0828483433149823,-0.000141170417513062,-0.00025153930633077,0.0238232439084845,-0.0291525777411849,-0.0299685751949185,-0.00332631012995023,0.0366315533980445,0.0277380267450291,0.0664626606004873,-0.0590670481771732,-0.029067686663601,-0.00637336556008982,-0.0269092559549088,-0.0124820715121286,-0.00243358760408916,0.00360055075962658,0.0619386030642656,0.0651707748936137,0.0104421474313396
"Bellibolt",0.00189865640306946,0.0322634528935106,0.018291827573275,-0.0263986860941353,0.0120987817410009,-0.0450201193144414,0.0279907651793395,-0.0124245539836847,-0.0225205318917913,0.0129012882825754,0.0279080338751375,0.0126591226311401,0.00583193911652888,0.000482952702122156,0.00924387598066621,-0.0362309412246455,-0.0106044544535823,0.00328955743578883,0.00880875407646639,-0.0215940195979977
"Bellossom",0.00369837232837786,-0.00219043086305459,-0.00622222387849716,-0.000251820990628093,-0.00756601440634365,0.00406893644334023,0.0436100108460578,-0.00282432308715749,-0.0114202109735249,-0.0082795680447434,-0.00174694822956304,0.0246110376156703,0.00652451287503858,0.00246696650551974,0.00635838392024898,-0.0229313341309125,0.0584326377561722,0.0273899411972264,-0.0356418381211104,-0.00580962167768306
"Bellsprout",-0.00390349318676091,0.000171575645114947,-0.0224546301974878,-0.0196565912517752,-0.0133957225185754,0.0145941276395146,0.0473143353160984,0.0139620357664757,-0.00100475952142332,0.0137503716204076,0.0204137610735216,0.0354862741888327,0.0149309087274384,-0.0143411880200636,-0.0181309742569593,0.00889846386260204,0.0369998765996994,0.0179558968060175,-0.0266590271608976,0.0350858335838463
"Bergmite",-0.0793316870189693,-0.0798419044023484,-0.0825672897793085,-0.0352060748282266,0.0112022535932958,0.0162324881475274,-0.0179254603839071,-0.00871737462271343,-0.00834253926343637,0.0211395563672191,0.00427234407873246,-0.0322463382810872,-0.012562819726098,0.0120975541389559,0.00334146967645198,0.00620528198247262,0.0406131508600481,-0.00946027534173889,0.0396574680930438,0.0243410838514862
"Bewear",0.00877859362822223,-0.0512461914591571,0.0137065961655658,0.00544742810778311,-0.0243444800616254,-0.0457988697158465,-0.00243385632983246,-0.00379320712165742,0.0721837328782446,-0.00460694925949536,0.037205167442568,0.0401983343160351,0.0142636286412818,-0.00355593601357523,0.0182762737453307,0.0296029496228683,0.0360115711191257,-0.072764267466367,-0.00798484294371283,-0.018306045751916
"Bibarel",0.0300212605601703,-0.0413045608665947,0.0199430497956623,-0.0109109784114641,-0.0053605610253942,-0.0158907028911532,0.0345346255975957,0.00418474176530609,0.0151898392168264,0.0130044904751722,-0.00741782142061042,0.0174510847451856,-0.00448937239539861,0.0208283103459015,0.0204362394399171,-0.0345831861657748,-0.0319522927900132,-0.0503907430510819,0.0073290536740473,0.00916308980280861
"Bidoof",0.0342145885181367,-0.0311886384289461,-0.0010503296350582,0.00439992653916382,-0.0196258040633142,-0.0317924504751932,0.019015476972774,0.00220777981454741,0.00562006945419191,0.0252344048459185,0.0140465728996361,-0.0163565159309768,-0.00225245160956628,-0.00825401463826015,0.00640716969763809,-0.0222293740126553,-0.00122507691194058,-0.0353162720218056,0.0173069624016454,0.044920268916274
"Binacle",0.041504489048814,-0.0347433836761084,-0.0276645022259413,-0.0172374575575733,-0.0198548834277995,0.0738719946042788,-0.0227961018197967,0.0232601867345433,-0.0291619372169706,-0.0138080269312144,-0.024863341653275,0.0185094093322289,-0.0141672618277855,0.0460224876948975,-0.00541298684694027,-0.0368116921766666,-0.0282017135687995,-0.0178321533986083,0.068081999664638,0.0235820819749326
"Bisharp",-0.0283934870953902,-0.00200935619848783,-0.00583674469188117,0.0640080508494483,0.072367899992685,-0.0453467918473653,0.00403410380195197,0.0327480584179232,0.0212574394075346,0.0165553212186995,-0.100014314320599,-0.00241438557815503,0.0195061233618956,-0.0328817157645798,0.0312473160276434,0.0209223763051502,0.0228084520013468,-0.0348473047197461,0.0422759350892216,-0.0257034660901778
"Blacephalon",0.0853961736940616,0.0267647291139801,-0.0925790566643179,-0.0137408534234567,-0.00340182569059275,0.03117167047532,-0.00419788321304053,-0.022599769874544,0.00188006561310345,-0.00877499345335158,-0.0213188692109637,0.0138313128177198,0.0252886483122337,-0.062904307460516,-0.0443702450430256,0.0482656456694897,-0.0823398022946151,0.064050622232203,-0.00952388032848978,-0.0572376400621546
"Blastoise",-0.00461371300996056,-0.00363677085417408,-0.00323632284694077,-0.00471764765121358,-0.00375641066616861,0.0114186966886659,0.0196288959965182,0.00196419510431314,-0.0244739092053526,-0.0147404519567252,-0.0119879613390437,0.0423976862142737,-0.00893580719649275,0.0494321091842836,0.0111370567855387,-0.0380762435379551,-0.0261821219273214,-0.00996921253153468,0.011607806631896,-0.0236877451845685
"Blaziken",-0.0088461036707562,0.0267495039027844,-0.0422773356057731,0.0488304233074835,-0.01132803711242,-0.0173068625012937,0.00395815178747615,-0.0449377466512413,-0.00700967937784831,-0.0277011916765343,0.0268763235709015,0.0799475096069227,0.043552418214495,-0.0296432916370702,0.00409419036540804,0.0456447484764089,-0.0246352636799876,-0.0316041121938225,-0.0093657071492939,-0.0251936991029196
"Blipbug",0.0133847757512736,0.00366064977177874,0.00825665782770851,-0.0091617078850162,0.017224512997021,-0.00433635395109591,-0.043562893081715,-0.0169643977352489,-0.0167954436954957,0.0474475095311248,-0.00188719713367033,-0.00296210015353546,-0.0114113967634782,0.0130501278009406,0.0050938557311799,0.0384737319602524,0.00506488745673923,0.0259798321681441,-0.00972444417391915,0.069238423077853
"Blissey",0.0218022372897383,-0.0350046371033172,0.0448877882806831,-0.0566710085700403,0.00656166850866867,-0.0904912397793355,0.0123334975527316,-0.0428813346285705,0.0629703980319901,0.012068414985767,0.149299925556187,-0.0749788008392478,-0.00460582362657542,-0.0148033657520595,0.0850046092745495,-0.0780500672709186,-0.000354428849729426,-0.0175424069441553,-0.0308281006655929,-0.0296842880036231
"Blitzle",0.00807650406181391,0.0105059038539143,0.0294495695096261,-0.0204266752128563,0.000493820846295612,0.00488984135840387,0.00253701112550186,0.0103603166477127,-0.0188751009391035,0.0249181090923343,-0.0107930887091813,-0.00378151102611493,0.0279671506980182,-0.0536980477547142,-0.0250937156364077,0.00321555545886995,-0.0242369349689957,-0.0190670807638833,0.00532148414398781,0.0331851493890535
"Boldore",-0.0154826672081948,-0.00911532083345409,-0.0353644921735192,-0.0109990052202028,-0.000356553364335948,0.0301722862046961,-0.00479330513487868,-0.00572131719400937,-0.00539383677013592,-0.0181180768831671,0.0101092071225027,-0.016268963872753,-0.0028099703328441,0.00481569252831708,-0.00969217094746324,0.0109366242411881,0.0244675314858084,-0.011667230286086,0.0710034959641505,-0.00368133419723952
"Boltund",-0.00450757482367373,0.0010456045125954,0.0379443558574661,-0.0172748830876997,0.0129489194374535,0.0161625667872177,0.00996852368489561,0.00335749531684193,-0.0159482449907205,-0.00682110620861937,-0.016915015363733,0.00385157422379658,0.0273334221192279,-0.0424475235409095,-0.000307559974469747,0.00730146394683169,-0.031558354245489,-0.0154809645978097,-0.0116789287654083,-0.00935300553781929
"Bombirdier",0.0219409248537618,0.0355876903337492,-0.00779672978766754,0.0652926374426609,0.0194321774165695,-0.00805996727894458,-0.00379102704624385,0.0198828651920761,0.0255988152144926,-0.049244440245149,-0.0582122571604469,-0.0667214578095643,-0.0307780666475677,0.0410727879913567,0.0262035067711475,0.0214602884620395,-0.00396608849949163,-0.0322625629370961,-0.0334223930980398,-0.0119878026872523
"Bonsly",0.0276379867676103,0.00248681301705556,-0.0404582087681667,-0.00256086686182682,-0.0477977070470062,0.0279359581449042,-0.0405064183952072,0.00708902589183231,-0.00585298694966728,-0.00230966738451371,0.00568592624910789,-0.0250761055664154,-0.0124294681327032,0.0129842103837922,-0.0115918255136273,0.0061213667177564,0.0329608235900805,-0.0145002689594405,0.0775660388148505,0.0174995820976906
"Bouffalant",0.0268798539337427,-0.0478687221938615,0.0369904286492846,0.0129215954251716,-0.0151694710341319,-0.0366560322077128,0.0299065067324046,-0.0162701294713207,0.0190526210445696,-0.00316872468564596,0.0103458244254004,-0.00924357500968882,-0.00364426344748498,0.00258875550594,0.0275666722491129,0.00162601175342833,0.0237541451791372,-0.0392413684927116,0.0116499928247915,-0.0161668737221226
"Bounsweet",0.0102365254753842,-0.000330818279539302,-0.00357386377831135,-0.0060586268495756,-0.0122422467454946,0.00903543704211926,0.0224501745261377,0.0153016041956256,0.00430856988917179,0.02001113336263,-0.000231948058817895,-0.00504506893463888,0.00154255735502301,-0.0088989709375816,-0.0111651451180766,-0.0242434452945798,0.05612298993022,0.0194354103192489,-0.0257124784897147,0.0567087786673821
"Braixen",0.00986763756099534,0.0117771113498594,-0.0183629155903284,0.0313412925817751,0.00197009957125277,-0.00840975185298533,0.0145512302881583,-0.0385250140305659,-0.0363630172891683,-0.0022147447252867,0.00616016441228368,0.00676449282161858,0.0204817540661864,-0.0285682614386693,0.00642687780307222,0.00976797602187988,-0.0356562105509593,0.000177162172143017,0.00367606660679323,0.00593866787614313
"Brambleghast",0.0260188918994657,-0.0240866311706507,-0.0147336588945932,-0.00754467337060038,0.0190109527178351,0.0375283455860428,0.0427379437610808,0.0142951897234397,0.0493926443749349,-0.0285471137922339,-0.0279254370897392,0.025143738208615,0.0121844600365683,-0.0118533741346382,-0.0505467128752452,0.0150408012714799,0.0258183839613811,0.0537958275202249,-0.0268438555219864,-0.00657993439647765
"Bramblin",0.0321842429343528,-0.0211040642704967,-0.0269602100478507,-0.00696854334370768,0.0101684284307438,0.0330835293997695,0.0332620693500456,0.0204036620378998,0.0529027548034379,-0.00919043684108554,-0.0171701170682084,0.0139241794026873,0.0105239606915888,-0.0184644312129213,-0.0615368154961451,0.00758143044504423,0.0250092084481787,0.0551615137817678,-0.0166676065705093,0.0375290799172158
"Braviary",-0.00477907350126683,0.000507674512164765,-0.0174577908741647,0.028715019045179,-0.0425008977165404,-0.00561387863848887,0.059770552995463,-0.000317947236490992,0.0514320417118541,-0.0408633715150802,-0.000235122035414797,-0.0435011592077842,-0.0282590456434821,0.0377859375722132,0.0299226270021985,0.0427893284202771,-0.014817063961873,-0.0413069529489586,-0.0300000693354793,-0.0132983981839959
"Breloom",-0.00600008401289587,0.0050844772126925,-0.00738619620090158,-0.00513092951881881,-0.00850988846722081,0.0131484577293482,0.00333862662950197,0.024177446891229,0.0265894763669328,-0.0203715814513318,0.00355594755764607,0.0630767199635287,0.0208761275290444,0.000440372670118433,0.00294613993167094,0.0162443652151468,0.0743694009470254,-0.00633707402502489,-0.0485733422613854,0.00607380092946583
"Brionne",0.00798508043428414,-0.000543117900846254,-0.00742214151868023,0.013410661106058,0.00237622665662592,-0.0128018260411933,0.0233683840715376,-0.00187334550838024,-0.0177467418008495,-0.00159952902158924,-0.0103806148588404,0.0493545365742023,0.000726135261825605,0.0341316616395437,0.0099210294071814,-0.0498277538225981,-0.0368362082546176,-0.00822681023543225,0.00801107290563167,0.00380371017609813
"Bronzong",-0.0891511243094878,-0.00752275380365681,0.0198932507491307,0.0372783162412992,-0.0134858983301965,-0.0476535446248725,0.0185661662119268,0.0133149712378537,0.0306920822112874,0.0345626033708302,-0.0549939035113837,-0.0207344465786338,-0.0150920652241884,0.00053176699869913,0.0125900299177531,-0.0109079685622489,0.0161687904476831,0.075134139050784,0.0488335386352666,-0.038525677486252
"Bronzor",-0.0779300606353011,-0.0168086259647286,0.0261748622505779,0.0375226558577262,-0.0396986769783913,-0.0541190260988231,-0.00444464193882567,0.0301416609967559,0.0332640349598838,0.059629953240101,-0.0431823653656191,-0.0416359778341135,-0.018822307216223,-0.00789609719957584,0.00130367817918668,-0.0191086385373156,0.012434341013322,0.0750676310065036,0.0595167676414098,0.0131883920122966
"Bruxish",-0.0632060788336343,0.00399548412618852,0.0550924392806255,-0.000457726580481066,0.00581291411135713,0.0349351665216001,-0.0103103981748479,-0.0253443248865633,0.0450953107841223,0.0242721708587773,-0.055115099030987,0.0256108656536693,-0.00452890780202606,0.031285554194345,-0.0191251778202126,-0.0560045292568924,-0.0469606366138257,0.00684237118117007,-0.00557017785818075,-0.00971321239274383
"Budew",0.0203439114248363,-0.0214002149693512,0.00310086158017609,-0.0229394104510778,-0.0603355061312729,0.00119318083349131,0.0104826307577332,0.0364429929641219,-0.0269773417202376,0.0274641488848102,0.0326868348236839,0.0233185675763367,0.00979497852956381,-0.0212076202712761,-0.00891575248867381,0.00978089411183923,0.0183737173134726,0.0341187721437096,-0.0232089024639599,0.0378071444617787
"Buizel",0.00286819586780768,-0.00418257881298168,0.00333652393503408,-0.0159372319026101,0.00640881477568337,0.0172117475423046,0.00683059388783643,0.00905969753611624,0.00916251055691988,0.016318572382242,-0.0176329551019672,0.0264770153572391,0.00575475503987187,0.0110881868303614,-0.00585269524536525,-0.0281881825985543,-0.0500042458057623,-0.0285752509938848,-0.00026295861641114,0.0274106659795248
"Bulbasaur",-0.0102780746987364,-0.00579013546708931,-0.0216990585295933,-0.00949477028857583,-0.0275170355267674,0.0122363624712171,0.0528034210982993,0.0133974342935147,-0.0291695540238737,0.00430228962079472,0.0235364673315637,0.0397534341797486,0.0127076865344457,-0.00691051068648735,-0.0158049057344499,0.00127491868259687,0.0396193137651327,0.0253688165051389,-0.0229586817192251,0.0317145530477459
"Buneary",-0.00024850483292629,-0.0276642761764758,0.0134579120085678,0.0292313275871542,-0.0157402548144279,-0.0111451993625956,-0.00187920499971591,-0.00675048463695075,0.0021114870084144,-0.00334098861788788,-0.00719644783612412,-0.00504692738986088,0.0146412374318374,-0.0308601148019849,0.00887496829331977,0.00727087371606635,-0.0120852310588035,-0.0330794023755038,-0.001929200935603,0.0240835827049243
"Bunnelby",0.0262991739613308,-0.0306934079113525,0.0222062926387813,0.00692875360828388,-0.0209670643172754,-0.00946758404144354,0.0100092939330731,0.00498933597573208,-0.0043541524827416,0.0139464303510311,0.000514852621247629,-0.0263139788324017,0.00365384191708238,-0.0267683859629059,0.0015000368267363,-0.00311269643083097,-0.00366441651752383,-0.0300343020726186,0.0104629143128653,0.0482707444680364
"Butterfree",0.00494759628270453,0.0180227088014686,-0.00789734496276367,-0.00730088746704272,0.0294190158577051,-0.00126854308536558,-0.0119286384206272,-0.0384097267849658,-0.0188587876555136,0.0128468876072427,0.00596638084192102,-0.023866407454451,-0.029444356832888,0.0451395400670083,0.0335331780931993,0.0549176746361203,-0.0163129687396553,0.0365373120633594,-0.046684143295545,0.0222472048899667
"Buzzwole",0.044390315415081,0.0326956100903141,-0.0162774629107021,-0.0333732672857358,-0.084550655260275,-0.000787185772458582,-0.101778951463198,0.0242501590214964,0.0705955766825779,0.0537611319341833,0.00233053704765215,0.081383280775507,-0.00984579422658441,0.0340783794098845,0.007317564184068,0.0856527005561585,0.0581318744719767,-0.0232935236531109,-0.0272402459506491,-0.0521133296772822
"Cacnea",-0.0121727695832563,0.0138067545713584,-0.041064704490248,0.0155754978909115,-0.00409031230642889,0.0147969608668365,0.0245612107833927,-0.00251327901162987,0.00957630478647217,0.00561867958267301,-0.0117542304998188,0.028079173829912,0.0182893604135109,-0.0179463402060164,-0.0147800730401411,-0.0204421339688142,0.0511545389098043,0.011440930387484,-0.0384740355294356,0.0279477040238018
"Cacturne",0.0149091914586847,0.0212733460104394,-0.0560335868261234,0.0658693321907545,0.0640348216668727,0.0217795359601037,0.00887909687877279,-0.0258764331323736,0.00669347982441791,-0.00046397416619389,-0.0786677294132146,0.0152904909876218,0.0245395626323478,-0.0272824102093819,-0.00556079404342151,-0.0520265048132892,0.0791225968646966,-0.0194649859887927,-0.0609605010141229,-0.00719695367431202
"Calyrex",-0.00592814411861916,0.00844674644478793,0.00228899611279089,-0.0105203451825507,-0.0941308961127675,0.0391306243209271,-0.0308975953564149,-0.0327931201211553,0.0272578445530117,0.0631149722115658,-0.0448676852846041,-0.0158818685349831,-0.00440294390286685,-0.0227732059523167,-0.022677964420614,-0.0551792210278572,0.0383688297935609,0.0508203703553155,-0.0555505623520346,-0.0317799207039307
"Camerupt",0.0187117353953968,0.0924750119667681,0.00623459433943205,0.0339119719931844,0.0043232201541381,0.00638172169067669,0.0338013317395963,-0.0950587879376381,-0.0286485340050539,-0.00808308965605678,0.0432896578413826,0.00084876835490466,0.0284449073751993,-0.0387552804655453,-0.0159427967369497,0.0218301375681996,-0.0081726993291093,-0.011736850240778,0.0369453254599596,-0.0186586457716297
"Capsakid",0.00563514157213224,0.00822507564909458,-0.0283537139194742,-0.00143144087771139,-0.00573517365825903,0.0211455492278894,0.0335565440509221,0.000944099001555412,-0.000743740389101039,0.0100718049084134,-0.0118197809831148,0.0155804421962061,0.0129581791004545,-0.0169755562761859,-0.0137040035851621,-0.0167045794454735,0.0453686826571498,0.0124598804116167,-0.0365157300305228,0.0367521579168281
"Carbink",-0.00122408074239502,-0.00417006028074865,0.00532825299092098,-0.00782791052275945,-0.0118332598688364,0.0534855372280981,-0.0778518901875675,0.0543210046334461,-0.0535091979712179,-0.11108962204627,0.0366973100970437,-0.0383726190679985,0.000376655248285696,0.00306050507296869,0.0990280698325738,-0.0197189416525711,0.048210209916116,0.0492098016930301,0.0734486889236059,-0.0281651204671658
"Carkol",-0.000686488726161319,0.0112128010304847,-0.0398039801339746,0.0193662005101868,-0.00129547374026596,0.00799708497935973,0.00759979184201851,-0.0469343858553104,-0.0442577723162243,-0.015629879130782,0.0262258828999277,-0.0215133507139029,0.00886642552465923,-0.0180085706235273,0.00635043033392899,0.023819605343059,-0.00965318222753284,0.000720554592717183,0.0741688311999406,-0.00825332974528338
"Carnivine",0.00421858315263165,0.00866645623994945,-0.0267138120660125,-0.00120224090709114,-0.000628041070386975,0.018157240098237,0.0509043949073993,-0.0074022919439601,0.00845707044068667,-0.000256479126318095,-0.00930018666992662,0.0255998532720886,0.00835482337437669,-0.000674911110104802,-0.00330659067260533,-0.0230421373347759,0.0636745985470491,0.0155078361244851,-0.0427378609504798,-0.000569318736149145
"Carracosta",0.0161460957568535,0.0163183187942177,-0.0436129086797565,-0.00524436278887296,-0.000530752161637633,0.0304130027749056,0.0102829715618239,0.00250224058345396,-0.0116394374244986,-0.0219370177680126,-0.016937702014885,0.0425634221849786,-0.0173343780314256,0.0637790867733951,-0.00848629133872584,-0.0140204296964138,0.00322325911750688,-0.000335075544919471,0.0442178296126827,-0.0221001637721285
"Carvanha",0.0368140996076475,0.0246091545588603,-0.01351786245572,0.00226618550592698,0.0823364426454871,0.0276459160759466,-0.0362121115963312,0.0170782260520581,0.0295694021780084,0.0421897478041394,-0.0782649297562239,0.00542879235727138,0.00338433570041394,0.00894007772666696,-0.014746597658439,-0.0545805404012195,-0.0333172746627264,-0.0626698275677298,-0.00380828025154082,0.0305914364547286
"Cascoon",0.0100128846585213,0.0158380539223805,-0.00337850800946339,-0.0121672675235915,0.0156918772799528,-0.0127928522328762,-0.0309949225400811,-0.0213040273633505,0.000891426729169843,0.0517111932178585,0.0099555569161306,-0.000896851566958279,-0.0170706763517705,0.0269734488077839,0.00289684534879658,0.0349815284613451,0.0229838312360142,0.0182565955099676,0.00436802073574902,0.0608209789324858
"Castform",0.040825537536851,-0.0311613471945675,0.0207434607466556,-0.0162798345674545,0.0133231768719063,-0.0213037032028056,0.0109896968925914,0.0164256166419959,0.0127179678590111,-0.0267255675468422,0.0210834305492398,-0.0251157946306688,0.00706925265077846,-0.0217758169287515,0.0232553719424278,-0.0144390188216118,-0.00340357461847412,-0.00744808789402239,0.000709457782517171,0.00711972923782825
"Caterpie",0.00709654007815202,0.00386172577275094,-0.00397839670782614,-0.0186750627129389,0.0192316604684782,-0.00119138421568189,-0.0390941362224026,-0.0216953964705986,-0.00140793919834164,0.0515633667412828,0.00098452500244999,-0.00648327246945738,-0.013505672361499,0.0170813310958201,0.0021139552380468,0.0399083060700431,0.0119135134446506,0.014957907041532,-0.00573536223165519,0.0667230171907069
"Celebi",-0.00829821123686064,0.00049689706303194,0.0182086461174853,-0.011099223706101,-0.0924582529302617,0.0471982470026101,-0.0253178424139349,-0.0357982457740535,0.0161059231833908,0.0422928060360687,-0.0596471014687764,-0.00766057617534284,-0.00201198938923951,-0.0206310627944032,-0.0137712817829173,-0.0507669627300568,0.0352173947825657,0.0550736843849998,-0.0630253717798628,-0.0538276895025204
"Celesteela",0.00919409415642932,0.0880134721869304,-0.0653539297043417,0.0372143302825183,-0.0280473829366596,-0.0176375861784281,0.0355574697645575,0.0888042139964321,0.0554476495612075,0.124607320698423,0.0121539579787025,-0.0484758662965207,-0.0432763917034409,0.0169697843437554,0.0415140221491414,0.0391776630878404,-0.00368375972366084,0.0239164731504545,0.0104890498073755,-0.0906627395135295
"Centiskorch",0.0146165582073402,0.0389161750257251,-0.0217965264688721,0.0075689985748394,0.0472190310050511,-0.0172822986786006,-0.006139060678444,-0.0942836472772786,-0.0234971416070862,0.0232032667845226,0.0310655324995644,0.0138740584173157,-0.00463776237377807,0.0229372395737857,0.0281115031905387,0.0629996981249181,-0.0200151586955915,0.0105709855519057,-0.0190671715777318,-0.0177703045491681
"Ceruledge",0.0112082801257956,-0.00825288314462343,-0.0228624039704756,0.0737485356197238,0.0285458186674466,-0.0217539951071017,0.00598281498275795,-0.0497480683299221,0.0430332940270853,-0.0493287285887409,0.00512821257814288,0.0278861799093118,0.0218917718195269,-0.0191860089485127,-0.0328067511299232,0.0500375536220449,-0.0447970683050321,0.0411405031836416,0.0241377138217547,-0.0325197802479471
"Cetitan",-0.0280967179393344,-0.0682533034283597,-0.0474391071055467,-0.0295515574126196,0.02643173940225,0.0106392364203353,-0.0114725253636197,-0.0537881875938851,0.063418209575683,0.0501203832913487,0.0616725852146079,-0.0302763885153381,-0.00332716395103709,0.00380876705113987,0.0237203207913123,0.000179530071499535,0.0208341144527237,-0.0562380055016676,0.00309881497905089,-0.0389098997615217
"Cetoddle",-0.0183207897666005,-0.0694724357000286,-0.0490117342036129,-0.0231963806079908,0.00958381080873852,0.00486417769754379,-0.0214767326166331,-0.0375378512272687,0.0340673396324797,0.0342207933773343,0.0379976810314916,-0.0260167995056196,0.00127838255023807,-0.00541839266117379,0.0147341993883715,-0.00753442165619767,0.0140673843555046,-0.0348565853570315,0.0120035532593874,0.0170977688380578
"Chandelure",0.0856755410216642,-0.00025083100798097,-0.0502767573703083,0.0395268258334435,0.0632553788394378,-0.019572919571067,0.0363478851231104,-0.0478827496006702,-0.00633308758076532,-0.061120766399969,0.0251664284499395,0.00887467804868176,0.0195682329322756,-0.0297362706067299,-0.0409900213839618,0.0138863305465656,-0.0705006934056816,0.0906555466999977,0.0166616257057489,-0.0275489211546404
"Chansey",0.0188133117167002,-0.0428820335105615,0.045272214825158,-0.058011883326135,-0.00694620683388664,-0.0794864798263835,0.0101920942157152,-0.0460822343558219,0.0788051994250559,0.0404634782729956,0.131481868219807,-0.0722467170337686,-0.00528397695814138,-0.0181146430178669,0.0592108229245743,-0.0736850490098527,0.0106494989265499,-0.0275599712530078,-0.0211048471933712,-0.00718989189958143
"Charcadet",-0.00813218150730893,0.0423533192693421,-0.0541660018495962,0.0634303751185845,-0.0140235292218593,-0.0287548481656643,-0.0166957316974331,-0.0320572077161557,-0.0269989834798896,0.0132186608790865,0.0187019573684556,0.00779280599480636,0.0197981864917524,-0.0307701742542218,-0.00823684550337932,0.0165910298234735,-0.0299662396625816,-0.000605498586203133,0.0220967707010204,0.0383119651106718
"Charizard",-0.0200309504066412,0.0323260503515178,-0.0424795867329819,0.0226729910737609,0.00406486695252463,-0.00877151241516416,0.032551503011204,-0.0393374502070815,-0.0463628663506789,-0.0305605901733615,0.0119935087998287,-0.0107690129884406,-0.00417291566584295,0.0134631846567693,0.00609644313935378,0.0357406119295978,-0.047063560384973,0.000420036023765943,-0.0273917330065172,-0.021573823168836
"Charjabug",0.0145730128750557,0.0317017923401113,0.0449305628667907,-0.0249382895450056,0.0367339202094498,-0.0336827929397885,-0.0148407050093053,-0.03003934446834,-0.0314108954963961,0.0356992519034892,-0.0124330457506528,0.0129134831470209,-0.00989529466910392,0.0221237059391167,0.0156855331385504,0.0428502579931557,0.0204989407380511,0.0246384777649649,0.00360134598026912,0.0129478435729682
"Charmander",-0.0290633243648395,0.0411662183401694,-0.0579336943107908,0.0225749610041264,-0.000825539290111433,-0.0222660164809319,0.0188130310453367,-0.0252939042708274,-0.079994967596313,-0.00598517282549051,0.0129875994788787,0.00253120087147596,0.0137513459511277,-0.0215358418524307,-0.0281766608756683,0.0191271999943899,-0.0340899262907793,-0.00651251988320966,0.0121539426305589,0.0282678197781737
"Charmeleon",-0.0162353351561125,0.0256067367277208,-0.0341758331945035,0.0169856339154707,0.0019850246323933,-0.0135788064866796,0.019322221805184,-0.0294295652457009,-0.0538261818431551,-0.0141691375087317,0.0113377301028877,0.00669728001603871,0.0121320848760872,-0.0146713853866501,-0.0111562974419679,0.0186587979292555,-0.0333504398440491,-0.00537382943113738,0.00099711931333844,0.00231897455667931
"Chatot",0.00333459571208224,0.00193973840090398,-0.0203760593772421,0.00781762987917493,-0.0315638482275813,0.00553487309521348,0.0491815383076829,0.0132636426602852,0.0284648851470476,-0.0261264328763581,0.00224530588535999,-0.0686085087467235,-0.0223138333298354,0.00867374208083083,0.0219105297843665,0.0281593673379696,-0.0417358076100348,-0.0237637941650988,-0.0414168267635887,0.0160009306224167
"Cherrim",0.00184155465914177,0.00404833579340547,0.00657231024668887,-0.0192307395580454,0.00452070667862445,0.0327304366208357,0.0376307561099352,0.0161984787499472,-0.0114836117520343,-0.0179086598277962,-0.00393919153169005,0.012035382659206,0.0187687509695417,-0.0214644920578468,0.0183526207423794,-0.0324733668143374,0.047869959515901,0.0262012450998026,-0.05271125707051,0.00712111380281953
"Cherubi",0.00911829661510852,0.0181670661306129,-0.0229260797390086,-0.00716727394610066,-0.00463643698241924,0.0186509150285884,0.0267124113296208,0.0275824977058885,-0.00933703923408891,0.00637439500169644,0.00790575741822418,0.00541907018491537,0.0137548180395391,-0.0208136220684786,0.0045813252546226,-0.0406378992230893,0.0585623594101523,0.0295767166368058,-0.0341409567661845,0.0456488867520644
"Chesnaught",-0.000313031652608139,-0.00624210075735943,-0.00182326473696147,0.0282772177482309,-0.0245237067697524,-0.00384216845000667,0.00364330501630328,0.00183304297998873,0.024030932764021,-0.0204961259525087,0.00156721075923541,0.0756076858053245,0.0176023706265106,0.0116393408363761,0.0007795889283038,0.0180038955054592,0.0679225834627384,-0.0166558982657431,-0.0371468148162658,-0.0169959095324914
"Chespin",0.0134736960224979,0.0015349270850851,-0.0205336891381738,0.0199530762457586,-0.019220487096451,0.0104246074654935,0.024644266886139,-0.00600853539314324,0.00353970716989944,0.0154708939105606,-0.0118263651861789,0.018357401070781,0.00983101724883678,-0.00841483031888665,-0.0115439090527164,-0.0144350503200467,0.0478345703270294,0.0010274061981376,-0.0191553477071231,0.0336896938228595
"Chewtle",-0.0154240978712456,0.0124107436782932,-0.0208347628218237,-0.0231822859926296,-0.00921013791054041,-0.00122588676380011,0.00867742943899627,0.0198690805342321,-0.00134918399574701,0.0203018584895421,-0.00819849446814648,0.031113528890816,-0.010065549242719,0.0414563431712618,-0.0126998772476372,-0.0406718494011747,-0.0268987548459185,-0.0223974012649648,0.0228654552476694,0.0362429105382368
"Chi-Yu",0.0527519217308844,0.0131294372606125,-0.020654358894959,0.0260137853872228,0.0106466847516762,-0.0060595905280904,-0.0227779058539251,-0.0213039162262837,-0.0563454778596366,0.00159792982409255,-0.0398565358425311,-0.0156455934037168,0.0110586968453642,-0.0354662670923037,0.0283160864446413,-0.00639072110339068,-0.0224949545276909,0.00156049645427105,-0.0170363878378566,-0.0456661102329757
"Chien-Pao",0.0235916115317728,-0.0412642746563307,-0.0310770821197143,-0.0112186028038607,0.0238362059678202,0.0326779356712642,-0.0512196536570958,-0.00930676918708925,-0.0142004977023998,0.0180944357564957,-0.0627165692855322,-0.0383857877554329,0.00220492997797014,-0.0287180490936626,0.0245970927352913,-0.00169874761904752,0.0124943771724063,-0.042253918185801,-0.0257190433415629,-0.0478663134714349
"Chikorita",-0.00292246067327712,0.00292778730460881,-0.0260143709890949,0.010623853356377,-0.0237250979923704,0.0181123496354709,0.0426821338389492,0.00441512626626815,-0.0250002847090379,0.00154786569003192,-0.0101750172525075,0.0218672508279123,0.00531758244026739,-8.707029474583e-05,-0.0130464020602483,-0.0252425515445081,0.0612202515682273,0.0172548055480221,-0.0262617800508974,0.0315049721491783
"Chimchar",-0.00572924644871946,0.0192909835636126,-0.0351789283679177,0.052683863431747,-0.0110712229761719,-0.00680486514407592,0.00265682754536225,-0.0351298369939976,-0.0222505014793887,0.00331988905939773,0.000922378510693144,0.0193090826845441,0.0274693803539123,-0.0349731484626807,-0.00495684760405553,0.01918289814665,-0.0286010448653443,-0.00915353552733416,0.00969588224477758,0.030099412012996
"Chimecho",-0.0191890335596306,-0.012417206841735,0.0273884039071233,0.0307831238008006,-0.0049383656190074,-0.0104635775916934,-0.0145269657374063,-0.0405491852443019,0.0188111063757092,-0.0081108322037029,-0.00406110043780428,-0.019883423990002,-0.00381564582048914,-0.000466699850731682,-0.0204241001137026,-0.0495952216920177,-0.0141006570185704,0.0594072250112282,-0.00931347952965852,-0.00736310199489426
"Chinchou",0.00978928185288541,0.0236202916056594,0.0597076762183539,-0.0514197278005439,0.0187143260004065,-0.00514913574957825,0.00177626222436268,0.0143601990314287,-0.00589790578128324,0.0447025286812625,0.0037150312026568,0.0187899986334688,0.0123963883724463,-0.00891442924719796,-0.0131719390378268,-0.0520867455782778,-0.0458220521481402,-0.0160385194843078,0.0109020758064253,0.023432996146253
"Chingling",-0.0247973079446105,0.0110887120232969,-0.000349796649290654,0.0221990039894482,-0.0544185378038697,0.0063932863781276,-0.043460820723847,-0.0163978995489612,0.0069385197952701,0.0402042132205425,-0.0171558331900829,-0.030500767660129,-0.00615510666330679,-0.0127563880156343,-0.0285359837401764,-0.0429795390365994,-0.0119507476723881,0.0449246293882678,-0.00296049240438023,0.0281892946368956
"Cinccino",0.018098435832203,-0.0554785982529129,0.0479401347795491,-0.0158030350895579,-0.00238099385338257,0.0036632036743303,0.0234941752273996,-0.00512972563748678,0.0095478044619402,-0.00774992602498138,-0.0153294209347571,-0.0208527613540175,0.0120661933829825,-0.0333085835260681,0.0160489684609371,0.0109048531333794,-0.0160622583765491,-0.0428180011607846,-0.013947933154218,-0.000475396627568749
"Cinderace",-0.0286766446682304,0.0161642309435032,-0.0113710384171022,0.0706840714499324,-0.00096311113890872,0.00218614076158429,0.00918832346212144,-0.0672143697974615,-0.015410702624002,-0.0246976686972058,-0.0100421922132955,0.0359485380831522,0.0385083967138344,-0.0371196410119618,0.0110534774864799,0.046243125210199,-0.0423522234196207,-0.0274222346979122,-0.00492049393951106,-0.0210029349990779
"Clamperl",0.00326326098029244,0.00492963040255238,-0.015041165817838,-0.00233553000131479,0.000630156014280001,0.00103178326052437,0.00459853789300103,0.0179907169838597,-0.0137045891290783,0.00825131778513595,-0.01874482964247,0.0315679112406163,-0.0119636700843752,0.0417950314072918,0.00181312942035106,-0.0337754484288733,-0.0209424146969418,-0.00151817420123705,0.0231829982343591,0.0189151486520779
"Clauncher",0.0215762373256094,-0.00884842233518493,-0.0166234769725917,-0.012155913378791,-0.00476245051908284,0.0119368817279259,-0.00247045308565812,0.0241537078648167,-0.0171169823272665,0.00715508283667036,-0.0173474079870884,0.0440862939222795,-0.014601475902154,0.0570398055602661,0.00470972726106924,-0.0493437542903874,-0.0356044027141562,-0.00615916209563915,0.0214537007808396,0.0254236521972355
"Clawitzer",0.0140417749856889,-0.00384006404159661,-0.0164457025506933,-0.013777453212344,0.0173227455075292,0.0115704868246769,0.0182900679114004,0.00699176026560717,-0.0292239275289519,-0.0109558880404515,-0.0145953992550259,0.0541832916451117,-0.0114178224136628,0.0584740768947169,0.018983300998599,-0.0560530568778183,-0.0412180685661712,0.0037278060329329,0.00619574083590691,-0.0162503452052272
"Claydol",-0.0391629057809581,0.0123648275354255,0.0817673432462906,0.0171790249995858,-0.0429691815246703,0.0350672860371706,-0.0216127545105016,-0.0335161751056004,-0.000873408172057069,-0.00880408147276971,-0.018867613173645,-0.0323153736779144,-0.010271940415435,-0.00164814131230907,-0.0309310797372893,-0.0277176944179032,0.016529415459906,0.0472087615305676,0.0206371277311237,-0.0272401845597795
"Clefable",-0.0111973269303277,0.0367679313744783,0.0028159740266089,-0.025716289325191,0.0338953381910612,0.00866445921589229,-0.0275996810018572,0.0258823711543249,0.0168567042047268,-0.0402530540930871,0.050649023496726,-0.0133203078109925,0.0204270599351365,-0.0192591813796729,0.0730649151605878,-0.0295794047089668,0.0126136250446859,0.0142756762525465,-0.00582897027052431,-0.0050584022978487
"Clefairy",-0.00794195509786092,0.0387017791901098,-0.00350986154303666,-0.0232665664574139,0.0264113498568043,0.00704032416204679,-0.036262795645228,0.0338937504546909,0.0181705803651262,-0.0297497199891946,0.0511091016059195,-0.0182507067789442,0.0185477888025887,-0.0211401315529951,0.0641206023604602,-0.0302615137510532,0.0149283014888534,0.0136983641992376,0.00474186863401209,0.0294017977623378
"Cleffa",0.0161642495149399,0.0310564874270379,-0.0237533092386986,-0.0150434404259482,-0.0110919261008766,0.00401891543833747,-0.0503467062302265,0.0395491228012998,0.00293443880546152,0.00167083607246428,0.0387572432060299,-0.0181749382511253,0.00926735574484501,-0.0190028243475524,0.0410803489033769,-0.0302471219851043,0.00770068551018199,0.0180245960779052,0.0115476234200781,0.0476165836182032
"Clobbopus",-0.0285176114909928,0.00625590823777897,-0.0121535709993538,0.0386718656431482,-0.0242935436818105,-0.0361963691017405,-0.0528682478868037,0.023161276988187,0.0216330356718471,-0.0148421952605062,0.0194351875362744,0.0623348213832709,0.0134321729951769,0.01215366818227,-0.00903107239775752,0.00439917196684715,0.0116307561655309,-0.02166863691341,0.00498964808351207,0.0255138457000291
"Clodsire",-0.00119948981455338,0.0237479630159951,0.0652457433526253,-0.0252899956478116,-0.0257763690449515,-0.0321754271292141,0.0350201961144117,-0.0406868438233779,0.0215497543483582,0.0120134401833233,0.106783072518877,0.019983819431429,0.00733465825356674,0.00769208421267358,-0.00938589817943064,-0.00497822198110618,0.022404521484853,-0.0135459420962018,0.0324472973578606,-0.0112290351005138
"Cloyster",-0.0120155838851448,-0.032722009756459,-0.0335373122584092,-0.0161827979265346,0.0133668044103469,0.0371830254625397,0.00110710579668743,0.00951347672060525,-0.0223196132101942,-0.000270151151870025,-0.0430905223780818,0.027797324233013,-0.0206343181222897,0.0601361032599394,0.0186649753812655,-0.00942589318196284,-0.00284468128675184,-0.0104747887524152,0.0317035616427545,-0.0205108962138226
"Coalossal",0.000391609719440638,0.0170236900981127,-0.0454641472846914,0.0249845765970608,0.00338060757840075,-0.000745423189004401,0.0171136547542219,-0.0540264379596435,-0.0374684195167353,-0.0110769287096183,0.0416383365661928,-0.0187661684695672,0.00322284840262923,-0.00490617613025225,0.0146280913101109,0.0197566803758664,0.00429023963165471,0.000972351771218024,0.0794976427102168,-0.0384467027590691
"Cobalion",-0.0066943947204245,0.00980335340379875,0.000759514687668132,-0.0108078009233476,-0.0460098222284621,-0.0231040975672601,-0.021031564333163,0.0781358979995342,0.0226686375488433,0.0454970142568083,-0.0406958983305907,0.029811609172309,0.0126356069567348,-0.0338578609232258,0.0284507160173448,0.0459514091856597,-0.00112389711871134,-0.000336009622234276,0.0214855475129398,-0.0614338349886124
"Cofagrigus",0.0559649362523355,-0.0479066715500833,-0.00556741349335698,0.0325956246862107,0.04483577192649,-0.0373716660172966,0.0180323376290883,0.0153249940096081,0.0324760694300688,-0.0549577330091028,0.0157922250217828,-0.000605622066951731,-0.0144773123000065,0.0227894985288675,-0.0395550533239496,-0.00587270183618171,0.00465408127529993,0.100837649441192,0.0502578691073785,-0.0255871749185303
"Combee",0.0116409816402699,0.0244706419856146,-0.0166379286021848,0.00558576803144185,0.00891407721907973,0.0157301921519873,-0.0313661144986975,-0.0249667136835324,-0.0194377380735565,0.0270019353914719,-0.0151558878020749,-0.025854057671129,-0.0347861594265421,0.0507200710614451,0.019201259448692,0.078687657663647,-0.0143879088691309,0.0258149690176169,-0.0333200276572593,0.0610474924320475
"Combusken",0.00164804102818514,0.026315737483092,-0.0471681225351004,0.0546467682228343,-0.0261505168087636,-0.02902901962387,-0.00765990260259586,-0.033811593343449,-0.0161182414081995,-0.0173828598068899,0.0301044017567633,0.0707204086092341,0.0387429066687483,-0.0276792952900303,-0.000550791921241164,0.0371515009052742,-0.0193117643336677,-0.0233285566325758,0.00412179555810413,0.00526607648050454
"Comfey",-0.000389492270293012,0.0158630841693844,0.0313794389672076,-0.00928498583463064,0.012900653582043,0.0348860357954895,-0.0176428151995161,0.0463237569367884,-0.0314163410924105,-0.0665611469890348,0.0134167540724299,-0.00177709033553103,0.0224684181714081,-0.021497803249661,0.0741597274809426,-0.0243265178256656,0.0137815703185106,0.0344368464707852,-0.0168633081508532,-0.0016480671109812
"Conkeldurr",-0.0333877361009894,0.00523291407516549,-0.0140801847447361,0.0355235214184022,-0.0222777186400762,-0.0310798038247028,-0.0412626978854063,0.000734041342900241,0.052714753314641,-0.0216658942508547,0.0204903857902551,0.0669862762347212,0.016788525348569,0.0126529397773354,-0.00336118524935089,0.0272784367497374,0.0312599002928531,-0.0417380038797345,0.000254981531397457,-0.0194949675582254
"Copperajah",-0.0412193671548642,0.00192611876619725,-0.0274693079747722,-0.00146500109963483,0.0392479807386553,-0.0420746400257428,0.0486306413002456,0.00843390143546622,0.0570531268334217,0.058716499741167,0.00169903761541784,-0.0092641534607518,0.00899716592267482,-0.0232503046445306,0.0180175031776058,0.0173591773064813,0.0196254169217489,-0.0129438399384028,0.0519475605050558,-0.0413196731921324
"Corphish",0.0144202216656909,0.00542087756070312,-0.0334148429254403,-0.0193072625442714,0.000740962063525055,0.0246640156249614,-0.000233693234241295,0.0267002989916044,0.00114789949582487,0.013770059236373,-0.0280771497247771,0.0485307039365027,-0.014698471321402,0.0594714965120992,-0.00657653421932607,-0.0371150835872019,-0.0301862927767386,-0.0193049773814026,0.0285547992389141,0.0303587194914951
"Corsola",0.03216950076538,-0.0264333983075042,-0.0117568151383079,-0.0199529058890991,0.00183625788331438,0.0277555167583809,-0.00450860053825905,0.00671343846411696,-0.0275932060327645,-0.0264585524543607,-0.00393098721996796,0.0240541232476175,-0.0207018775135322,0.0645672164682349,0.0109370139400886,-0.0569329444107696,-0.0243382335147182,0.00212485878355625,0.0633480385091832,-0.00373454027055802
"Corviknight",-0.0294415207274809,0.0176727598311809,0.00495199356641693,0.0218872697357224,-0.00748434812403852,-0.0265498546220829,0.0516945327993544,0.0332659739522016,0.0496181316060869,-0.00478058561907842,-0.0208079982289875,-0.0399311322693538,-0.024363487909361,0.029944780084852,0.0354447114334159,0.0367827913900319,-0.0110020104690022,0.00864950849404936,0.0127730943802477,-0.018182698931127
"Corvisquire",-0.008321283293747,0.00756359371211956,-0.00289220149942539,0.00848715658803553,-0.0123110285476869,-0.000266690521311803,0.0124773028826774,0.011663074674582,0.0178282046135294,-0.0126252106768847,-0.000783158006667875,-0.0263560776967915,-0.0144391712327923,0.0176803834030295,0.00667234631483673,0.0213393921856683,-0.016702727443509,-0.00168169363936807,-0.0163577890286834,0.0180314616505145
"Cosmoem",0.0319992108401361,0.00865190974441068,0.0354367119092209,0.0791616862199306,-0.170533509227424,-0.0317126390405102,-0.0892744162757674,0.0222285449205011,-0.0321426019430467,0.0893484577470812,-0.013097486421405,-0.0423132910095598,-0.0456043115348986,0.02368796294794,-0.00104994037240864,-0.045337365264026,0.0334099482633752,0.0734340392802363,0.03022098732082,-0.0344963048382717
"Cosmog",-0.000398598637534045,0.022784175238951,-0.0276892045463933,0.00230596702333193,-0.11508875436859,0.0141741457781676,-0.085284003062744,0.00593627570749424,0.0192481129183706,0.0902503934108219,-0.0239347987868272,-0.042047380199762,-0.0102684618042635,-0.0323756790663507,-0.044786997610416,-0.0383203537450405,-0.0122462357109177,0.0400736986114493,0.00593003421047244,0.0349296061623579
"Cottonee",0.00862184918667183,0.0638939584849457,-0.0214063364820457,-0.0221867496625044,0.00595131725063975,0.0723217815508359,-0.0143669214160011,0.0829359075704455,0.00141967893810863,-0.0444273312480904,0.0278491486165875,0.000978510693132571,0.0332396207206706,-0.0371831223277998,0.0699999208383305,-0.0427150584967864,0.0730241257001316,0.0343655296457083,-0.0419625660822518,0.0543056192055936
"Crabominable",-0.0595439832792562,-0.106026817185158,-0.0879374501300828,-0.0337692072966255,0.00347210597054862,0.0118906960045718,-0.0692781512367521,-0.00713002421188907,0.047343937194155,-0.0178216834484993,0.0241203433751479,0.0565577118366881,0.00508908040829621,0.0317341235244475,0.0180977413393853,0.0259922156404426,0.0435793386565201,-0.0453807738192509,0.00544935767676464,-0.0190266117125733
"Crabrawler",0.00159529785750746,-0.0215951395334634,-0.0124799962837818,0.00783683625344262,-0.034169377666616,0.0117563209597572,-0.0599516151864399,0.040126546227562,0.0169570958384906,-0.0216938846677317,-0.00192600492920609,0.0633942921859337,0.0116778933221296,0.0129873323435434,-0.0137099493032438,0.0253866800823269,0.00683011726180696,-0.0301105519456032,0.00172475304959525,0.0239426175946401
"Cradily",0.0286949137104344,-0.0343753599245995,-0.0492779929721257,0.00460087322946011,-0.0191371833690575,0.057641364229958,0.0148811141698631,-0.0179668038033613,-0.0345832409352658,-0.0435370909013572,-0.00404097206502102,0.00843198702518523,-0.00850299886484351,0.030958337754726,0.00673318808756901,-0.0274515909606221,0.0486403383266738,0.00998856397812346,0.0194782765987823,-0.0239165775645376
"Cramorant",-0.0175892818016294,0.0115453648769707,-0.0188568247747142,0.0181758266644068,-0.0192812259583502,-0.00507228163329165,0.0401726618781356,0.0278614838786455,0.020827900387593,-0.0361079884073084,-0.0162653621777921,-0.00652324878140844,-0.0360823755270835,0.0808601876523361,0.038424407797777,-0.0106424630152741,-0.0747965812864073,-0.004233191254869,-0.0325425962718585,-0.00204451363507861
"Cranidos",-0.0186693383981271,-0.000849117051152384,-0.0532102212458298,-0.0197966772815526,-0.0100448369517925,0.0543498301254056,-0.00759962152087525,-0.0202035654158002,0.00793578549136939,-0.0209572964994179,-0.00077034831436486,-0.00703822493022683,0.00767036068705563,-0.00578422805807402,-0.0273099257848829,0.0179694228146898,0.00843456705741422,-0.0459029882151766,0.0487930410744515,0.00794732994287798
"Crawdaunt",0.0500775987600345,0.00899284688263823,-0.0377401987975064,0.00734964430908636,0.0727545797643213,0.0264189888578939,-0.0155781456613603,0.00982997743890764,-0.00432900290837412,-0.00225910822221566,-0.0861709227224022,0.0359045316915671,-0.0110628932679352,0.0567432848878957,0.00878919490139101,-0.0582019933723751,-0.0153985397805433,-0.0513639439333779,0.00925063004915703,-0.010388078851359
"Cresselia",-0.0130736594679515,-0.0113106100466508,0.0674552549721417,-0.00366750246884965,-0.067326005274904,-0.0144164934339234,-0.0458009889034427,-0.031209741862291,0.0271409387768864,0.0364594562244159,0.00244499199906863,-0.0404147024503638,-0.0180557370584171,0.00494185425015943,0.0067266765831516,-0.0457441218060521,0.00181086546323872,0.0473130703562732,-0.0193611232216634,-0.053170566387454
"Croagunk",-0.0193300699744234,-0.00877112488786761,-0.00332716991221458,0.00597913425403388,-0.0236918827646012,-0.0127493753317231,-0.0183265176897,0.0179085383069199,0.00617053129033006,-0.00747997253440131,0.0376910734229906,0.0520596916434466,0.0201793264641148,-0.0115447144919519,-0.0101588679293587,0.0335232298025223,-0.00493451659620428,-0.00592450775869124,-0.000854832014859988,0.0276092767674871
"Crobat",-0.0258153562860169,-0.00169657773187527,0.0163919175535961,0.00114753925357202,-0.0297925808191014,0.0180406359690742,0.0360615721764467,0.0184250714861724,0.0179285481478799,-0.0297919861405129,0.0163233974950428,-0.0225680816630086,-0.0156325918724322,0.0261618991693117,0.0153144378928431,0.0529839637204749,-0.0413638699688523,-0.000284911568949202,-0.0361918931685939,-0.0116106258726783
"Crocalor",0.0140266372140613,0.0295171380955167,-0.0432236423948497,0.0368463164567598,0.000230219701204191,-0.0217066431046998,0.0269467300963059,-0.0545315625518528,-0.0310260868432768,0.00633694183724504,0.02272593304415,0.00951616139221807,0.0179932811067008,-0.0222542702235499,0.00799654784441755,0.00827621963506013,-0.0266619003509573,-0.00184862130973345,0.0150219553136351,0.00328755451904575
"Croconaw",-0.0117031912107958,0.00765562977622402,-0.0129492095338047,-0.00565337736304841,-0.00529633089995497,0.000857631106419642,0.0182961233177035,0.00546136914442901,-0.010204542608617,0.00208019426975445,-0.00982186691181211,0.039353841527545,-0.00750896055754582,0.042652595329352,-0.00197682537331807,-0.0336592830709155,-0.0223163969281502,-0.018602441934279,0.0159675844913523,0.00533460579689129
"Crustle",-0.00675544477036213,-0.00388306003117613,-0.0117732768248747,-0.0184468425506898,0.0389603373851756,0.0361658984875523,-0.0335494445575612,-0.0464092457380878,-0.020019007744482,-0.00749018302314329,-0.00336925471799308,-0.0149715281426565,-0.0255173489151292,0.0476608774498662,0.0174658185860755,0.0595767018887808,0.0400036428671624,0.0179755827688387,0.047062882211888,-0.0182315476186274
"Cryogonal",-0.0479224637937508,-0.14021990430509,-0.0174868005787778,-0.035251592264788,0.0070670130618951,0.0176390855501169,-0.0364009729596433,-0.0161420538802773,-0.03891334435765,-0.00937182859374569,0.00576508047359238,-0.0407134259045718,-0.00512241582166454,-0.0149914566653756,0.0446909519616506,-0.013008983411361,-0.00635930950995272,0.0264152872878264,-0.0195320143709673,-0.0264870234710777
"Cubchoo",-0.0341919490378923,-0.0768743161020661,-0.0647901605548418,-0.0246387781203997,0.0206692329365047,0.0119362622046952,-0.0232904378520773,-0.0286041918738038,0.000211240917401993,0.0195295730683877,0.00507537728772956,-0.0239683625871189,0.00635559688157516,-0.0166808022253749,0.00979517119163898,-0.00116607483322889,0.00966510708961666,-0.015142767053413,0.00849879088623396,0.0298653535712805
"Cubone",-0.00754504022224548,0.0555366402781434,0.0476928022811657,-0.00906143320411976,-0.0292706223460025,0.0203218179411643,0.00683863079126848,-0.0166318741680199,-0.0174605396005191,-0.00882515928311623,0.0164509371491906,-0.0152293238501356,-0.00397937508891366,0.00349659471239629,-0.0363882519158397,-0.00677802370838898,0.0329243520910361,-0.00786366709877734,0.0438201729137035,0.0223284630510021
"Cufant",-0.0358119058694058,-0.00845805344291563,-0.0137306868929667,-0.00203085957394511,0.024449628078091,-0.035042879444656,0.0330942173049346,0.0232873787514585,0.0368684971083218,0.046582642101581,-0.0206619807339724,-0.0130413393351959,0.0129550001762644,-0.0339685723281417,0.00906337959802941,0.0180189132930547,0.00630423545700017,-0.00338476545079977,0.0544589829008995,0.00933436985342945
"Cursola",0.0359508697939518,-0.0297390039678678,-0.0257748850262447,-0.00992038553367389,0.0359378198598349,-0.0045433471081776,0.00990719286723605,-0.00332476720245961,0.00540948530892327,-0.0455631948734286,0.00586180525184581,0.0286361941754299,-0.00430346248145983,0.0277867711069651,-0.0194862847655844,-0.0322480723945339,-0.0318130074674731,0.0667600657071671,0.0153750893216884,-0.0263540821460238
"Cutiefly",-0.00364723152262501,0.0469078233864868,0.00977823772098387,-0.0458688847274908,0.0569028612250966,0.0432623378184682,-0.0708012218718183,0.0185659169139805,-0.00322473596076285,-0.0109096239895202,0.0174952304564039,-0.00744365249230768,0.0152762450479739,-0.0135469498807484,0.0747995258770061,0.0320690205569108,0.0088375832711103,0.0287007246139224,-0.0273268697042464,0.0482914711686767
"Cyclizar",0.00539827666189776,-0.0289202207387295,0.0199501802232151,-0.00796602157548924,0.00772360466856606,-0.0156658481962856,0.0113307736035923,0.00837738728919331,-0.0204391753404957,-0.0124061885676431,-0.00677823100912452,-0.0210243613783103,0.000925513704805147,-0.0201998066332999,-0.0301853860025707,0.00510837704007348,-0.0029236187402834,-0.0446168661309876,-0.0375033874790805,-0.0163060035322147
"Cyndaquil",0.0157886510171621,0.0239201884934847,-0.0395387856541894,0.0442085097789219,-0.00888016685277417,-0.00645411607324061,0.0144046237361386,-0.0408375134762747,-0.0448771365659431,0.00677306825830935,0.004452300207143,0.00899520313021287,0.0244410083657463,-0.0366343165518482,-0.00286402693638906,0.0214034649079711,-0.0400665088458047,-0.00515766250438178,0.0128017314865234,0.0301045970289583
"Dachsbun",-0.0129518562337124,0.00749089655259979,0.0257454055389664,-0.00299517237720967,0.0115283199152337,0.0278618173470437,-0.0197970871417294,0.0291280940231817,-0.00434160364479597,-0.047021055050934,0.000814001919222158,-0.00282582254661434,0.0191347246278156,-0.0167315144898182,0.048408368360828,0.00108986601959673,0.00684267473286465,0.00104385111361652,0.0132757900186558,-0.00388637311434342
"Darkrai",0.0816636854473851,0.00765887040483302,-0.00911460185993467,-0.00040867048241081,0.00427850752997615,0.0266988731920682,-0.0604193782808017,0.0193548861278632,-0.0437549524619044,0.0151344018100484,-0.0805560516506435,-0.0266612950121944,0.00627786401743429,-0.0406439667840506,0.0147218002120467,-0.0215982242313486,-0.0141203060236463,-0.0131415942869421,-0.0401971493837695,-0.0579445319104873
"Dartrix",-0.0122070622502194,0.0474954084253468,-0.035930378513014,0.0337667705836286,-0.0420509467662275,0.0136305033735746,0.063806153678599,0.00778918286268491,0.0258407080285213,-0.0368855939220888,-0.000123094101368915,-0.0276826144081719,-0.0232480091035963,0.0376147292413038,0.00581169603902437,0.0176154382514311,0.033116008944507,0.0116072232195934,-0.0542857289842684,0.012017663932988
"Darumaka",0.00992601322244062,0.0220055810426859,-0.0247572796199303,0.026451922728562,-0.0054864479024761,-0.0227783668545451,0.0110836677925786,-0.0467309256713723,0.00284589164907903,0.0179678853068032,0.0172997661919915,0.00181895478350402,0.0177517457711178,-0.0243634747404894,-0.00243449468162027,0.0312342548595167,-0.0177536765656339,-0.0261659726314981,0.0237429678056759,0.0261676597117381
"Decidueye",0.0237934593813885,-0.0213916198413192,-0.030058417983808,0.0244073462243057,0.00879085430846196,0.0158055571132961,0.0578760223230364,0.00110423122194107,0.0660024668159225,-0.0574090452300219,-0.0144027369957232,0.0153655115687339,-3.47907370845703e-05,0.0103430732642877,-0.0379238159235295,0.0139902441222834,0.0120898200001328,0.0605405984097951,-0.027157288415168,-0.0250353256057083
"Dedenne",-0.00346893375249245,0.0629487352351114,0.0466596747272695,-0.0466022461500005,0.041122613849321,0.0244423413984667,-0.0240030349369101,0.048638092978547,-0.0157712328142708,-0.041709031694144,0.0249935862404762,-0.00699243670107259,0.0513248022826267,-0.0706345011169979,0.0675922710167637,-0.0210305995262242,-0.0224957607727526,0.00323333986016352,-0.0100919991374577,0.00962490326330601
"Deerling",0.0268497017789401,-0.038841904342739,0.0160536578690545,0.00190653579653141,-0.0191637140552154,0.00748538790720144,0.0339402104044309,0.000469135306759225,0.0068218863970558,0.0117826334705082,-0.013978817846707,-0.0107189982685841,0.00761777665801047,-0.025199307330447,0.00612207090258188,-0.00822099069720366,0.0362623706744057,-0.0237833859410384,-0.0304762737033157,0.0314238117977674
"Deino",0.0190006313223518,0.0156847398961276,-0.021927152728362,0.0273635139168459,0.0742405255796986,-0.0880736480453586,-0.0862443419999535,0.0496074062368354,-0.0565460062941635,-0.00777359566458941,-0.0395380877142074,-0.0564801014330312,-0.0214145990946202,0.00609588869015479,-0.0884227203939794,-0.0342913246220116,0.0404577892573692,-0.0585501602997542,-0.0230578777798879,0.0187159379228533
"Delcatty",0.0201781030555971,-0.0379399487843243,0.046942482306871,-0.0195786314957533,0.00437332227605626,-0.00249903322340524,0.0127030688198053,0.0155672604069909,0.00770966973936513,-0.00452940878492938,0.00990726246479458,-0.0332937234370105,0.0110526109629393,-0.0337891793879068,0.0315293423553358,-0.00546760457268277,-0.00581441602244037,-0.0326396901709268,-0.00394117320237003,0.0141427899045399
"Delibird",-0.0441854087787877,-0.0698472321552386,-0.0758891789524444,-0.0202119583914233,0.0180035495329455,0.033561084295019,-0.00973600121838102,-0.0191410431366399,-0.00781354155121666,-0.00162264690047996,-0.00358842876833466,-0.0467403845541749,-0.0198435708455252,0.0267818565333038,0.0291278631130023,0.0198182473162143,-0.031050561737871,-0.00368810631685415,-0.0212537104774967,0.0320337214748991
"Delphox",-0.0109261078121562,0.00863487939867019,-0.00124297804624936,0.0402279503536267,-0.0043599832117118,-0.00133176789065964,0.00887956091609258,-0.0586878959230205,-0.0295396621083445,-0.00475773746441102,-0.00594394695668644,2.29247670644767e-05,0.0194828140284736,-0.0290116256709059,0.00111182937450998,-0.00577163380033904,-0.0460851939013742,0.0268263492200307,-0.0098416525441655,-0.0231017903544409
"Dewgong",-0.00951192723209425,-0.049697450212489,-0.012122704299383,-0.0131332921268252,0.0127539500256005,-0.004578611445375,0.00130990159248191,-0.0156341757713928,-0.00859747185245869,0.0100128881714088,0.00478371776921997,0.0154924775299731,-0.0084775220554369,0.0365442630592745,0.0285943482585552,-0.0420320561772535,-0.0266157622692131,-0.0180291903306584,0.00885472656474886,-0.01058256182262
"Dewott",0.00604686730639846,0.000349526219520811,-0.0118915378822654,0.00496659476174748,0.00195143434667358,-0.00234915893809076,0.0159960259138315,-0.0102308030824209,0.00386475161033603,0.00805843503908694,-0.00626029984209726,0.0332515861443056,0.0063966730428357,0.013459796590764,0.00303965777173105,-0.0307017024536769,-0.0324032086014005,-0.0186018214707497,0.00251763336481771,0.00508324305340246
"Dewpider",0.0216431712094172,0.00717508194950406,0.013309026627635,-0.00543774611477573,0.0207568739845138,-0.0274631668885055,-0.0268888233346256,-0.0136099035963961,-0.023045939094859,0.035917928172077,-0.00132687777729249,0.035655832721135,-0.0269976055866372,0.0692125979008982,0.0204263739638325,-0.00281456105891156,-0.0142664149854792,0.0219867195502132,0.00211739490137245,0.0448068645770499
"Dhelmise",0.0221472911396172,-0.030507550740872,-0.039402988324952,0.00257233108424858,0.0259838370508215,0.0170805843014844,0.0366623044882525,0.0185200207610493,0.0737030918485752,-0.0145476193385703,-0.0125274404646952,0.0198974779261654,-0.00797370521942571,0.00925870745716777,-0.048533752136326,0.0191700613673943,0.0460876684910087,0.0680036649558598,0.00509027960420448,-0.0394917730163183
"Dialga",0.00190787120387779,0.0545275503185777,-0.0461930511556433,-0.0311452588508801,0.00703546246137221,-0.0476497236575349,0.0103983497153516,0.0841160106385904,-0.0294409775152906,0.0815728418209235,-0.0153310000423032,-0.0201491844037608,-0.0132566102714685,-0.027622029724573,-0.011605796230684,0.0163547194352502,-0.00325165381406,0.00896380561922888,0.00381627692024372,-0.111650906838461
"Diancie",0.0200591438861012,0.00742924528007665,-0.016624587421259,-0.00690215722636392,-0.0257044571655684,0.0536595154549802,-0.0717343959847044,0.0352040064007555,-0.0548165725675065,-0.0970660921585993,0.0221988176716408,-0.019078389999,0.001268649487579,0.00343213487858246,0.0842592442597985,-0.0119065442501844,0.0382114691962074,0.0408349906765087,0.0546705632999352,-0.0550861331561636
"Diggersby",0.0283666849792858,-0.0127753826801534,0.0684768599099851,-5.7550540517733e-05,-0.023202122764848,0.00368941915941641,0.0215320004937831,-0.0226826408767332,0.000316728057645327,-0.00696256195464618,0.0177081170794789,-0.0304233670242122,0.00538094540795887,-0.0237958712820675,-0.00186006450586543,-0.00471902304811286,0.0128576965446963,-0.0358361455998376,0.0177932131676116,0.00424130113323908
"Diglett",0.00390681385259177,0.00686714581760225,0.0312030508930419,-0.00296863605798743,-0.00977447516973043,0.0249917475632838,-0.00633939518456219,-0.00208443819204882,-0.00587406560381429,-0.00767513763601114,-0.00721621859246697,-0.0077129616091663,0.0121296949981592,-0.0238907410755005,-0.0261260439514018,0.00991997372779788,-0.00668838414575322,-0.0115636284059883,0.0102457066031439,0.0365938878145274
"Dipplin",-0.0059082151735672,0.0089270813446968,-0.00628752714510926,-0.00417200197912896,0.0043267439050598,-0.0187120668810073,0.0155557130013666,0.0122611894965279,-0.027164899324871,-0.0178095298753851,0.00444661325664165,-0.000666232345552374,-0.0092469688714187,0.0137579101615998,-0.0419186349649343,-0.0172426798396243,0.0541936981466117,0.00628835127973302,-0.0412675699750799,-0.0125892178396566
"Ditto",-0.028312599166437,0.0291597553577381,0.00395015304652389,0.00264468480451426,0.0479973689436686,0.0263241542058982,-0.00189365228577094,-0.0474764759124073,0.0214255080467305,-0.0971074581486055,0.00904395587390545,0.250672169623314,-0.845855303702805,-0.440990573427554,0.0533341063543261,-0.0385078735226523,-0.00324889532712825,-0.0420197815434175,0.0175592259357343,0.0407568777421169
"Dodrio",-0.00252698936111816,-0.00854245101226709,0.0075985634068335,0.0192513968948898,-0.0341521255488531,0.020265977176094,0.0484317579869699,0.0264283700573214,0.0337446510150161,-0.0390959621174934,-0.0218598559873232,-0.0577007503389717,-0.0269138920810078,0.0227215614366656,0.023673097673129,0.0524932016953007,-0.0302302750812068,-0.0349395300921803,-0.0354058096111037,-0.000289070834916948
"Doduo",0.00533801678855844,-0.000969603619069432,-0.0142591202111522,0.0245162653427604,-0.0460130794902753,0.0128836571611581,0.0358999404976725,0.0380381650141652,0.0347437998910353,-0.0206211683403953,-0.017253427031045,-0.0644628224234087,-0.0299296137998781,0.020539368665955,0.0103661683931409,0.0473798187321766,-0.0256715755827974,-0.0329643761197188,-0.0211436955154022,0.0371956462695752
"Dolliv",0.0302256844202092,-0.0245494044718248,-0.0122827867091107,0.00932004515231445,-0.0199260216092695,-0.00526899544043561,0.0510004831820656,0.0060299680624863,-0.0183006681756609,0.00535998982276916,-0.000854550016062148,0.000554287216919615,0.00190649818259257,-0.0128484062938506,0.0114692830028202,-0.0319709575209403,0.0604617230521949,0.00897324394287887,-0.0329268666271412,0.0249596732379741
"Dondozo",-0.0139490469586755,0.0470382436229852,0.0189604242556352,0.00440923222038021,0.0624979925074011,0.0048914950876532,0.0358496043691234,-0.00424008944781173,0.0921292219076317,0.0905372794292929,0.0712404718072377,0.0341991531944221,-0.0310846384740399,0.0823640278573046,0.0115127030059355,-0.0486563638910208,-0.00217320400053234,-0.042777226675929,0.0167401679916371,-0.0512752500726973
"Donphan",0.00376574915357079,0.0321364312136728,0.0372414607021678,-0.00348640217998323,0.00215962848943785,0.0196904547995128,0.0129748691715977,-0.0355460883232775,0.0178549562886797,-0.0153778765536491,0.00395674066252997,-0.0035381946813753,0.00421795178823369,0.00374230696802266,-0.0171149717981372,0.00583668460964519,0.0349422107457439,-0.0300880216800815,0.0328886352038402,-0.0235960921044426
"Dottler",-0.0271697175854727,0.00560131132063419,0.0415041684265477,0.0284666686465347,0.0052594936888012,-0.0234205230847115,-0.0542265526863136,-0.0711510574415115,-0.011457539366659,0.0484250436707007,-0.0181789803212861,-0.011033008907398,-0.0263254126432128,0.0387564666306476,0.00696805335085074,0.0019007914235322,0.0224208572513267,0.0733454897241695,-0.00579810958988028,0.0270264758425861
"Doublade",-0.0241957899500484,-0.0028212673929362,-0.0103624675463875,0.00370247494480111,0.03891401299586,-0.0278327372765042,0.041260209014659,0.0455453311419331,0.0694203347954629,0.00359705133057267,-0.0509108445038836,0.00494594124847366,-0.00197523307723727,-0.000357999382909256,-0.0267724031226585,0.0421871885079496,0.0157907710900335,0.0598292736348529,0.0817839196434278,-0.0165348736502764
"Dracovish",0.008374759087754,-0.00163291790303741,-0.00371682643549688,-0.0200908535791438,-0.0143945034861884,-0.0200567803373556,-0.0224384912669092,0.0283677199458685,-0.0165813069076349,0.0191124965114979,0.000106617220531825,0.0009214792266766,-0.0199010376317627,0.0215846180956627,-0.0289699126216865,-0.0138795577049027,-0.00444046277885427,-0.0173039145510906,-0.0146804880274274,-0.0383960565253329
"Dracozolt",0.00390506346743951,0.0127102347601395,0.00331559046392061,-0.0311812068749852,-0.013268954940333,-0.024304322593128,-0.0196282062348579,0.0252234797672274,-0.0290040325231778,0.0167197333312258,0.00285861961697152,-0.012911479824799,-0.00731316452038173,-0.0109792398565052,-0.0410618651024153,0.00148618815325059,0.000682009553259476,-0.0172840260519225,-0.0168683942436709,-0.0397863987970546
"Dragalge",-0.0317629567139448,-0.00617853553693887,0.0130739535559476,-0.0188215363636604,0.00866993214438339,-0.0715355839384521,0.0158426573386761,0.0371335453456413,-0.079099250738772,-0.0231430802709126,0.053219305754308,0.0252740488384993,-0.0147136148473074,0.03314815688678,-0.0445472740054752,-0.00549829716690155,-0.000968671249884253,0.0102373996238202,-0.00817467314662149,-0.0232307083944381
"Dragapult",0.0179604353734891,-0.0524003460107809,0.0183093481668548,-0.041935015124388,0.105666008580373,-0.025133800126896,-0.00986155248703383,0.044525091116168,0.0298339012964474,-0.0853282901646199,0.00197798814099834,-0.0164085484366337,-0.00462293683801271,-0.00651766398019614,-0.138957108942594,0.0301931893934874,-0.0371634269020141,0.0265194694293665,-0.0371579172210919,-0.0525490017895733
"Dragonair",-0.0219359409534744,0.00742887091468533,0.00284873431973644,-0.012886355056177,0.0211773516626671,-0.0317892031688752,-0.010422742814163,0.0318641681615638,-0.0410499879716109,-0.0128488847576431,0.00875888232248951,-0.00792324155632123,-0.0177580115795231,0.0253568854569907,-0.0589432563610981,-0.0118693340748246,-0.00181255898223004,-0.0224351731781889,-0.02353047263889,-0.00961885887560003
"Dragonite",-0.0268405664017771,0.0216661371063497,0.000492744492905083,-0.0144033855016008,0.0191640076454239,-0.0346391766022622,0.00714951002964018,0.0245588996105879,-0.0302148877871689,-0.0386644321496961,0.0103074370304758,-0.02085298719328,-0.0318698825543814,0.0508689635348507,-0.0488194269665828,0.00631669828532707,0.00102934988311196,-0.0213960390612853,-0.0467032547947093,-0.0458867148069621
"Drakloak",0.031215866807629,-0.041245165473858,-0.00446230514149603,-0.0350031189871307,0.0721854644151969,-0.0416273659862463,-0.0293398734008838,0.052365918513101,0.0303903924624108,-0.0607892206684341,0.0120996989310537,-0.0283536706162346,-0.0100055522156714,-0.00627618297069915,-0.147037996554062,0.0187988887846305,-0.0283912083430785,0.0287565191516569,-0.0170873117900987,-0.00570653997842754
"Drampa",-0.0234971512836303,-0.00957596674406003,-0.0240065078677844,-0.0089982449530805,0.0310363194342493,-0.100366419021825,0.028607075468252,0.0209989153255397,-0.0985090404971235,-0.0204515240697489,0.0490757673148389,-0.0410779200805822,-0.026728733493626,0.0131185023176097,-0.0537033994555746,-0.034841761804943,0.0222114611672707,-0.0245045164320184,-0.023247705299601,-0.0274003496192932
"Drapion",0.0410136083139712,-0.011113464286212,0.0365509352953548,-0.000199804468255968,0.0606529925272873,0.0203354680345888,-0.0185551014050174,0.00255160418020273,-0.0363452202740971,0.00288399449685371,-0.0473128945983697,0.0125401497738951,-0.00308893963595749,0.019390070106427,0.0217451924743499,0.0299896872409783,0.00345434758162475,-0.0161211655918304,0.00635507700134758,-0.0143701874312835
"Dratini",-0.0195188381523257,0.00911179700198194,-0.00402391211751091,-0.0136802674206923,0.0150120543646257,-0.0354954364934368,-0.0167235377571146,0.0361739408141861,-0.0420789262020083,-0.00832424256291043,0.00601119743817367,-0.011290234764609,-0.017982397881183,0.021304975400337,-0.065088085021613,-0.0134906544896757,-0.000956385698040036,-0.0208865361830425,-0.0160912496907524,0.0182943931553578
"Drednaw",-9.4629535118438e-05,-0.00770166844438759,-0.00742157067165605,-0.019498060415986,0.00518151657685528,0.0302141323533147,0.0043688343454282,-0.00537056714941405,7.03373713566769e-05,-0.0136441140225351,-0.0145933224887725,0.0157368198988732,-0.00746565336104597,0.0393831257206523,-0.0024088217226845,-0.0288673294129995,-0.0144830187776359,-0.0408292104186373,0.0499042901371311,-0.0179651647355299
"Dreepy",0.0360668070645944,-0.0387506829758657,-0.0171293208662507,-0.0257328379219909,0.0649098895459281,-0.0409013357905693,-0.0434600693939864,0.0767392101317973,0.0193996408677694,-0.048594166973153,0.00132579586869584,-0.033989118627458,-0.0112466942791036,-0.0117704955951553,-0.164904189207393,0.021205725089814,-0.0293058207364916,0.0346850143200625,-0.00576856727658889,0.0298365190425228
"Drifblim",0.0507740842936302,-0.017086705692605,-0.0425756801097247,-0.0265478421381039,0.0498958974909454,-0.01198935203947,0.0319909247103727,-0.0282424013842899,0.138811392578485,-0.0392049902026833,0.0542955067441469,-0.0433682691959991,-0.0131638951593606,0.0127386746015051,-0.0422709491110518,0.0159110504917491,-0.04747133742347,0.0442090519460689,-0.0199745984083241,-0.0195509975190923
"Drifloon",0.0277813257470522,-0.00594865875228082,-0.0211829909154526,-0.0120343472996216,0.0167871155764187,-0.00301751647032217,0.00461836792583062,0.00671268577858956,0.0693237112916364,-0.0218027140769528,0.0295455286266977,-0.0321959661625859,-0.00836237027006076,0.00318634162633467,-0.0284181325529235,0.0103582771951083,-0.035999097582592,0.0403646004309952,-0.00440081183682003,0.0189154296063684
"Drilbur",0.00527655013087373,0.0186871655873031,0.0488781093687231,-0.00868371792458502,-0.0126376453832526,0.031536049683143,-0.00359672286141603,-0.0185488164581897,0.0135954930125348,-0.00572445958198564,0.00197446955006916,-0.0101576852716829,0.0144448750324255,-0.0245474368838573,-0.0329071594619458,0.00940018843890319,0.00666284773382525,-0.0289361415687628,0.0187204143518112,0.0243123361525107
"Drizzile",0.0130269282367753,-0.00176804374924159,-0.0100744218643723,-0.0049002581378771,-1.33133390094354e-05,0.017150941865973,0.0158347166740838,-0.000567008617882458,-0.0125247234173732,0.00485453832855035,-0.0187970528284811,0.0422218974728516,0.00815020323872332,0.0166666181059793,0.0041415377038555,-0.040262863969279,-0.0550214830899219,-0.0180818180974364,-0.00590342425020664,0.00766099413413081
"Drowzee",-0.052454330517379,-0.00788363521194621,0.0208937510521491,0.0551776999349653,-0.0285824813448258,-0.0183881054607954,-0.0385107625134067,-0.0320785586540083,0.0156383374365058,0.0102743553144468,-0.00376451206671834,-0.00901492575444575,0.00173765089821289,-0.00522841365476384,-0.0141312140793303,-0.0389022257388202,-0.00275437040098173,0.0364872004298851,0.00191000800346557,0.0173681877159632
"Druddigon",-0.0422714488811076,0.0143184580517443,0.00564052388614284,-0.0179661602510559,0.0164046314752051,-0.0536311828702081,-0.0057820306170653,0.0210829866506609,-0.0451285819678728,-0.0268350943894681,0.0162095250893501,-0.0136383523033849,-0.0200568296596378,0.0273430454013703,-0.0710816995590729,-0.0009975960833869,0.0335673182897034,-0.0302715708011968,-0.0118905587362416,-0.0250680319197152
"Dubwool",0.0202842276222905,-0.0441214650106476,0.0364099581158092,0.00991416666751589,-0.0106501370425707,-0.014468670766654,0.0248282214824046,-0.00289465492494091,-0.0063579356324022,-0.00314291197668545,-0.00772161545246067,-0.0114094903969267,0.00165539483366557,-0.0115513019761484,0.0264035608920068,0.00466062491601033,0.00954213658848555,-0.022181073489622,0.000683285492821882,-0.00713280092269782
"Ducklett",-0.0078773901197378,0.0200644758620528,-0.027899582953786,0.0175500733146708,-0.0261609292657628,-0.00788323198244327,0.0254220559663634,0.0335332817944105,0.0252262409582318,-0.00657062382920357,-0.00588060170771226,-0.0170700856828305,-0.0391335658478577,0.0751277122330988,0.0225554671813037,-0.0122821390723976,-0.0606805367506937,-0.00705267467893821,-0.0120762739843844,0.0359350589618818
"Dugtrio",0.00299669203321014,0.0101477897173755,0.0646139639487161,-0.00811504869583959,-0.0102982512902737,0.0457533289222142,-0.00282956126475824,-0.0119756735842643,-0.00289370610915195,-0.0219283210101502,-0.0171008638182717,-0.00542068542483259,0.0190344061131315,-0.0293950045642476,-0.0284919836197648,0.0187821528134138,-0.00712238387764672,-0.0241960505552079,0.00540200107677483,0.00695467478130444
"Dunsparce",0.0267160685242519,-0.0349150769178969,0.0119359185552356,0.00152711254745282,-0.00856257395688883,-0.0345693468775936,0.0299947688427317,-0.0209713591445965,0.0159685354099176,0.0124798685662404,0.0259515340095415,-0.0211697573735206,-6.11785609158123e-05,-0.0113878743669542,0.0204115024174052,-0.0142269863678693,0.00780915206893778,-0.0337020948581706,0.00621549924211865,0.00327202083432818
"Duosion",-0.0231574647619456,0.0124912981033416,-0.021888967375267,0.027393652341978,0.00816563256906723,-0.0157933387602705,-0.0118048595456036,-0.0457123639304259,0.0143811670277351,0.0101460636270759,0.0103980128216213,-0.0191278030603293,0.00395375823644217,-0.0173962345934047,-0.033735328198399,-0.060610364467188,-0.0201616773780663,0.0618591914312529,-0.004091399646215,0.0100906430238459
"Duraludon",-0.0640826812548503,0.0117214327264809,-0.0133168808811425,-0.022873189386524,0.0577720792554762,-0.0455241539917728,0.0308004740772755,0.0602597280471272,-0.0371483513007295,0.000555249597308906,-0.0377499575908585,-0.0183172932366915,-0.000215236892663595,-0.0192183255050803,-0.0397388208311514,0.0203796540357893,-0.00190303267374772,0.000464250671895334,0.0224014003520132,-0.0403685858282318
"Durant",-0.036923350218707,0.00842475739494492,0.0546664324031434,-0.0398600915248868,0.065458837133312,-0.000853968940928415,0.0130873046494279,0.0123825592895915,0.0236783451558248,0.0515826593580997,-0.0902731966187318,0.0135854762172568,-0.0015848660779084,0.00268292203631576,0.032898254531671,0.0969313396877264,0.01376777159863,0.0217330959227083,0.0172702234568922,-0.00543530258581668
"Dusclops",0.0801462666298924,-0.0485788049117101,0.0193055450503709,0.0460538785779263,0.0263382669574274,-0.0475662866079162,0.00562800976878233,0.0167353063527421,0.0311445144020106,-0.0638398134142789,0.0105239915139019,0.0115235610138303,-0.0158859826592642,0.0327407488927414,-0.0355820710029289,-0.00258234199544767,0.00721702630012413,0.0929559118227608,0.0464946257222894,-0.0176319083236722
"Dusknoir",0.0738089364226041,-0.0506893902555129,0.0257884749181798,0.042562021075954,0.0334923005445897,-0.034785332505654,0.01011229995779,0.0155860269462374,0.0398598703030884,-0.0698311512112459,0.000194892156197435,0.0183739671643525,-0.0125569636058511,0.0317998304370623,-0.0346658079595982,0.00944565588664616,0.00653881748997428,0.0838686105307663,0.0395559641152312,-0.0353329277315302
"Duskull",0.0810864388473368,-0.045548748160051,0.00661109568725366,0.0378697930127504,0.0144481176667535,-0.0306860849562923,-0.0119433788706423,0.0304043528119118,0.0445389154609859,-0.0419689851109978,0.00546204949363027,-0.00440433769965339,-0.015169582929466,0.0201494685726422,-0.0537857341366478,-0.000229786621719901,-0.00227736261216762,0.0851719973018619,0.0440568679184719,0.0244678516328219
"Dustox",0.00162996612643642,-0.0165529609627405,0.0382924035698374,-0.0260948955428567,0.0119710879156643,-0.0116457214551279,-0.0117683116908604,-0.01965506765001,-0.0282472398732205,0.0273365124375226,0.0317839129248785,0.0270163492019722,-0.00884358184780425,0.0253571154789336,0.0227966964571974,0.0596711075381579,0.00284869404743336,0.0354060383116988,-0.0116474474205813,0.0196801236431655
"Dwebble",-0.00088456598133943,-0.00378980039728543,-0.00553784782537799,-0.0111144702997648,0.00936364069949053,0.0189805518713034,-0.0211282071018008,-0.0120921824996326,-0.00872683297928887,0.0018056015242616,-0.00373764149596219,-0.0131790905893676,-0.00994097724462155,0.0137180184865301,-0.000905876729479179,0.0355775535966551,0.0135837475175244,0.0111334621072677,0.0319181573450917,0.0225483279033871
"Eelektrik",0.019973009289248,0.0109293450822531,0.0124723955571672,-0.00756301765445303,0.0150645331133111,-0.0220613193871085,0.00774255356263171,0.00298087604563287,0.00659911484117555,-0.0045857188939539,0.00658763882550102,0.000824153268839172,0.00639909730315515,-0.0103611047816529,-0.0158183921554243,-0.00970897951548308,-0.00526946472562435,0.0107189033540699,0.00638660145035028,0.00369234285373185
"Eelektross",0.0181672307721909,0.0134820451947331,0.0103771790772845,-0.0105962251012397,0.023329264270005,-0.0205576303222233,0.0150020812195954,-0.00492615717137251,0.0112581757370556,-0.00899629367686756,0.00832422057422533,0.00557261215037033,0.00829643727814691,-0.0095267889883868,-0.0124109431249153,-0.00794666685755149,-0.00580375511097219,0.00739632413581195,-0.0017388008592417,-0.0219689961030326
"Eevee",0.0356142228295261,-0.0437483083312271,0.00601809429293819,0.0174111034326382,-0.0322842703597832,-0.0188869286352979,0.0165492169362489,-0.00322694167247917,-0.0103712812368418,0.00617598288650962,0.000408706288974029,-0.014656153466396,0.00309257749312252,-0.0202198191517729,0.011755837311473,-0.00734384311347997,-0.00255715417906507,-0.0298535374185814,0.00737973534933295,0.0266795963573321
"Ekans",-0.0262652660300156,-0.018008028573515,0.0171164718102508,-0.00998105053349945,-0.00803033584330417,-0.0235650548176134,0.0109965356639204,0.0328804568632131,-0.0363738375697658,0.00740325378288382,0.0370954594978094,0.0174916232248199,0.011641196951349,-0.0164362767092505,-0.0289279636948003,0.0280746735067034,-0.0144353388808546,-0.00423702640537966,0.0116518303385602,0.0331932161450437
"Eldegoss",0.015226646919738,-0.0150973092473892,0.0148283513856291,0.0152609657612331,-0.0190494747341156,-0.000259898033033979,0.0419642733157563,0.00210209814662442,-0.0344400672464887,-0.0189477297957837,-0.00994924047323504,0.0196754602864992,0.00365287204987993,0.00328756969259575,0.0156399625562662,-0.035089075705443,0.0605182699470796,0.0411630769012771,-0.0389687172588591,0.000628533608427462
"Electabuzz",-0.0106260393593756,0.00894419615935177,0.020619883115073,0.00106726983061934,-0.0047195830301938,-1.46495514132452e-05,-0.00473378031753217,0.00174854621326872,-0.0245855442328913,-0.00827950276282418,-0.0132793578079767,0.0130140431124101,0.023299542241656,-0.0343483621332836,-0.00126338883892044,0.00130433714003041,-0.0327006360887588,-0.00228717708864554,-0.0140983857594194,-0.0136768488817691
"Electivire",-0.0211421225150659,0.012383736440019,0.0237889875161308,0.00408961538577885,0.00882063265178128,-0.00170011954787864,0.00212581931811451,-0.00780040354806545,-0.0116737258233681,-0.0093030790729925,-0.0138515751398605,0.0246043211930737,0.0284397847539145,-0.0353744551037603,-0.00566087734515743,0.00972267423497569,-0.0180998043568962,-0.0144608692002946,-0.00984368550758533,-0.0292856180901011
